#ifndef WEIGHTS_H
#define WEIGHTS_H

#include "top.h"

// Model architecture constants
#define OBJ_FEAT_DIM    128
#define SCN_FEAT_DIM    128
#define TASK_EMB_DIM    384
#define AFF_FEAT_DIM    7
#define TOTAL_INPUT_DIM 647   // 128+128+384+7, layout in DDR3
#define NUM_CLASSES     80
#define CLASS_EMB_DIM   32
#define PROJ_DIM        64
#define GATE_DIM        32
#define FUSED_DIM       352   // 5*64 + 32
#define MLP_H1          128
#define MLP_H2          64
#define OUTPUT_DIM      1

static const weight_t obj_proj_w[64][128] = {
    { -4.79156785e-02, 6.56636730e-02, 7.67368451e-02, -3.61175276e-02, -2.96078343e-02, 7.17959702e-02, -7.46754631e-02, -2.84394808e-02, -2.45527718e-02, 9.02223662e-02, -2.14936752e-02, -2.13095900e-02, -1.32210494e-03, -5.05486690e-02, 1.24512156e-02, 4.05074246e-02, 5.66016957e-02, -4.86667119e-02, -2.54760813e-02, -8.15857202e-03, -5.36691956e-02, -9.02685523e-02, 2.80374177e-02, -7.27066491e-03, -5.41489795e-02, -9.88642871e-02, 9.14862379e-02, 1.35985445e-02, -2.98766829e-02, -1.01064280e-01, -4.55228575e-02, 1.26640769e-02, 9.29803413e-04, -2.41627172e-02, 2.08714232e-02, -1.28024012e-01, -3.91063616e-02, 7.70220906e-02, -4.15675230e-02, 7.42308274e-02, -2.17851829e-02, -1.94865707e-02, -3.96047682e-02, -1.93425529e-02, 7.66876861e-02, -8.68452787e-02, 1.88772399e-02, 6.34796694e-02, -6.47858605e-02, -7.25926086e-02, 1.92752015e-02, -7.02096373e-02, -3.27294916e-02, 6.38511255e-02, 7.54431635e-02, 4.35513593e-02, 4.90551665e-02, -6.35909215e-02, -9.73172300e-03, -3.26343924e-02, -6.29431531e-02, 7.15959221e-02, -3.49989720e-02, 3.56946737e-02, -1.12063400e-02, -1.93213373e-02, -5.74618019e-02, 1.61179658e-02, 4.12336364e-02, 1.41516114e-02, -3.47175705e-03, 1.20836534e-02, 4.85708192e-02, 5.53767160e-02, -4.26541567e-02, -2.77316440e-02, 7.69211054e-02, -3.92657071e-02, 5.11267520e-02, 5.70113249e-02, 4.09597233e-02, 6.23868927e-02, 6.40411228e-02, -4.04702825e-03, 3.88106331e-02, -4.82540168e-02, 1.94654372e-02, 2.44888365e-02, 2.10668426e-02, -4.84716892e-02, -1.11973500e-02, -2.98422817e-02, -5.07225916e-02, -2.91332975e-02, 4.47728783e-02, -4.66270223e-02, 6.74586594e-02, 4.41434793e-02, 4.14979570e-02, -7.62640908e-02, -4.16309685e-02, 2.43144557e-02, -7.21590593e-02, -2.94434037e-02, 4.82864641e-02, -2.53335349e-02, -9.00605917e-02, -2.34102383e-02, 8.16605166e-02, -5.09758741e-02, -6.21258048e-03, -5.35020307e-02, -3.94394659e-02, 3.08124069e-02, 9.46323797e-02, -1.75810307e-02, -6.03621267e-02, 2.78076455e-02, 5.28151393e-02, -6.62326887e-02, -3.64030674e-02, 7.03944415e-02, 5.47216125e-02, -5.83280213e-02, 6.43420964e-02, -5.29944748e-02, -9.81232710e-03, -1.77495219e-02 },
    { 5.28590977e-02, 6.93741292e-02, 8.03656802e-02, 1.15905153e-02, -8.71354192e-02, 6.71627745e-02, 5.52546829e-02, 9.58108716e-03, -5.22594303e-02, 2.09305715e-02, 1.27288513e-02, 8.91524479e-02, -4.37302254e-02, 2.74649505e-02, 6.48587570e-02, 6.46008179e-02, -9.40362066e-02, 2.28101877e-03, 3.49742994e-02, -4.35428955e-02, -3.49667184e-02, -7.08454624e-02, -6.09808154e-02, 6.32187724e-02, 3.20267603e-02, 6.66813478e-02, -2.72461530e-02, -6.79065138e-02, -4.43322882e-02, 2.82150488e-02, 5.56011572e-02, 5.42441271e-02, -8.45042523e-03, -6.69936985e-02, -8.81495792e-03, -3.30377854e-02, -5.94145013e-03, -4.62590903e-02, -2.44158786e-02, 2.96505056e-02, -3.65372887e-03, 9.04907212e-02, -5.08466065e-02, 9.35727432e-02, 3.52111980e-02, -6.55545518e-02, 2.67058760e-02, 7.01528564e-02, -3.10041402e-02, 7.34105781e-02, -5.23232631e-02, 4.58340645e-02, -7.25970715e-02, -4.43364754e-02, -6.71970472e-02, 2.65244767e-03, -9.78092849e-03, 3.70282866e-02, -8.66611837e-04, 6.04947582e-02, -4.90560234e-02, 2.15643868e-02, -4.14144695e-02, -5.63386753e-02, 6.99880868e-02, -7.32083153e-03, 1.11903958e-02, -2.34369263e-02, 8.75095800e-02, 8.42644181e-03, -7.00791702e-02, 6.61084279e-02, 3.67986411e-02, 5.85465468e-02, -8.63884240e-02, 9.70465839e-02, -5.56207374e-02, -6.92929029e-02, -4.97860610e-02, -7.75026605e-02, -3.10820285e-02, 8.42437446e-02, 3.03865429e-02, 5.97148482e-03, -5.99198081e-02, -7.61884078e-02, -6.46045581e-02, -7.39076128e-03, -1.41796768e-02, 2.59442069e-02, -3.81329693e-02, 2.28074584e-02, -5.54555841e-02, -9.45865884e-02, -2.02563293e-02, 4.08643335e-02, 2.76953001e-02, 6.64127320e-02, -7.80557618e-02, 8.09441973e-03, -1.36353578e-02, -6.95110112e-02, -6.89928457e-02, -7.86245987e-02, 8.82413909e-02, 8.67951214e-02, -1.09921414e-02, 1.56326033e-02, 5.73093183e-02, -6.35971278e-02, -1.92844719e-02, 1.12377387e-03, -9.25075437e-04, 3.36406231e-02, -3.83092202e-02, 6.09431453e-02, -7.56179690e-02, 1.67569555e-02, 4.70984764e-02, 5.79976775e-02, 9.18056816e-02, -6.95196316e-02, 1.57492664e-02, -6.69916198e-02, -6.30895980e-03, 6.90848753e-02, 8.74515250e-03, 9.19707306e-03 },
    { -4.17195968e-02, 9.09516737e-02, -4.81870435e-02, -4.32523079e-02, -9.33969114e-03, -5.68158031e-02, -7.48070255e-02, 9.29158926e-03, -4.96231467e-02, -5.79361059e-02, -1.22104259e-02, -8.35793093e-02, -2.65835226e-02, 6.36532605e-02, 3.54269929e-02, -8.00045393e-03, -6.81563914e-02, -7.34984991e-04, 6.30559549e-02, -1.59590431e-02, -5.65742515e-03, 4.67982627e-02, -4.29948121e-02, -7.13327527e-02, 2.81883031e-02, -9.35971811e-02, 3.69133502e-02, 6.43762201e-02, 2.55183801e-02, 2.89174747e-02, -1.32466517e-02, -2.37769801e-02, 4.81256247e-02, 7.43043944e-02, -3.61795425e-02, -5.61983809e-02, -4.85255308e-02, -7.00620934e-02, 7.25823194e-02, -2.38415953e-02, -9.51029062e-02, -7.26459324e-02, 5.99459410e-02, -1.83362868e-02, 6.76601231e-02, 3.72146443e-02, -3.37143503e-02, 5.50906062e-02, 6.28784820e-02, 7.48550426e-03, 8.07044059e-02, -7.87835494e-02, -2.60878354e-02, 8.32434818e-02, -6.51685819e-02, 1.27095170e-03, -5.88486269e-02, -4.38349731e-02, -2.93172672e-02, 7.31703565e-02, 7.81648308e-02, -3.54676731e-02, -3.79600711e-02, 7.11511122e-03, 7.52368057e-03, 3.08248196e-02, -1.55024033e-03, -2.84747034e-02, -9.68386605e-02, 5.58095835e-02, -2.47121956e-02, 1.35539407e-02, -4.66417074e-02, 5.45384325e-02, -5.87820113e-02, 5.57789467e-02, 7.34969527e-02, -8.11838806e-02, -6.86829612e-02, 1.72122922e-02, 6.45326311e-03, -4.61507821e-03, -5.91320843e-02, -6.84096590e-02, 1.02241434e-01, -1.77433770e-02, -7.79291540e-02, -2.33594961e-02, -7.40184709e-02, -3.46559808e-02, 7.39974082e-02, 3.28968577e-02, 7.31281415e-02, 3.31405550e-02, -5.47736846e-02, -4.20490317e-02, -2.49560233e-02, -6.61793873e-02, 6.15349263e-02, -5.98686002e-02, -7.28967488e-02, -7.11552873e-02, -4.53220448e-03, 5.85963242e-02, -3.35711874e-02, -1.23805730e-04, 9.20587704e-02, -3.70081291e-02, -3.03967427e-02, -2.47220844e-02, -3.46552841e-02, 8.69869888e-02, -6.50125071e-02, -4.00082730e-02, 3.27068493e-02, 2.71571148e-02, 9.12308171e-02, 4.90910709e-02, -2.89269704e-02, 7.27152228e-02, 5.05866855e-02, -1.85211410e-03, 5.56092262e-02, -5.70549890e-02, 8.35980773e-02, -7.72565454e-02, 2.02262565e-03, -5.12305684e-02 },
    { -5.80484197e-02, -4.73994687e-02, -1.02041259e-01, -4.62703453e-03, 6.95784688e-02, -5.81592843e-02, -3.02961562e-02, 5.44643886e-02, -8.66873115e-02, 8.68849754e-02, 1.47895864e-03, -2.50524376e-03, 5.58369644e-02, 4.10657041e-02, -5.03903627e-02, 3.25423256e-02, -5.86996563e-02, -6.23572953e-02, -9.20320116e-03, -5.64674027e-02, 5.10482714e-02, 1.54149253e-02, -1.81751586e-02, -9.71327424e-02, 8.60420391e-02, -4.44012834e-03, -8.00105706e-02, 7.06941858e-02, 5.15083969e-03, -5.78489490e-02, -1.58604216e-02, 8.36844295e-02, 4.32576099e-03, -3.96890603e-02, -8.06943551e-02, -6.77639022e-02, -2.20319955e-04, 7.70752132e-02, -4.61766534e-02, -5.23012392e-02, -4.72776704e-02, -6.72320798e-02, 4.04600948e-02, -5.46872802e-02, -8.05466622e-02, 1.88241322e-02, -4.04094569e-02, -1.83583647e-02, 5.35358861e-02, -3.25027183e-02, 3.59077007e-02, 5.50199859e-02, 2.19359770e-02, -1.40245175e-02, -7.64522776e-02, 4.50251587e-02, -1.52629018e-02, -1.10894507e-02, 6.29736856e-02, -9.22704637e-02, -7.48781040e-02, -2.80123334e-02, 3.17504331e-02, 6.23606704e-02, -8.95812456e-03, -7.61975795e-02, 7.38347173e-02, -4.32981774e-02, 5.32517768e-03, 8.98332372e-02, -4.26744483e-02, 9.03484523e-02, 4.31229062e-02, 9.07752290e-02, 3.32332053e-03, -7.02014565e-02, 6.17905660e-03, -6.77674860e-02, -6.81404099e-02, 4.56541590e-02, -8.30895007e-02, 3.93334031e-02, 8.81199166e-02, 1.82342567e-02, -3.63701284e-02, 6.19756617e-02, -7.73142949e-02, 7.56415911e-03, 6.76265955e-02, 2.33412683e-02, -6.45661652e-02, 5.67905977e-02, 2.91744266e-02, 3.06824613e-02, -6.24396689e-02, -5.47456034e-02, 2.68535987e-02, -4.60665002e-02, 5.32619618e-02, 6.12011999e-02, -7.95528069e-02, 5.01979403e-02, 5.70912324e-02, 5.47739826e-02, -7.15239495e-02, 1.14661446e-02, 7.38679841e-02, -2.54563838e-02, 1.17629441e-02, 4.21135593e-03, 2.22056136e-02, 1.85574479e-02, -8.79777521e-02, 1.35775525e-02, 3.67658176e-02, 1.26864249e-02, 8.18319172e-02, -4.10839617e-02, 6.03461228e-02, -5.49485255e-03, -4.02353071e-02, -1.87026504e-02, 8.72628316e-02, 2.54772529e-02, 6.62330985e-02, -4.96607423e-02, -4.45156842e-02, 2.99011711e-02 },
    { 8.43186900e-02, -4.90679219e-03, -9.96423513e-02, -4.59643602e-02, 3.45603786e-02, -8.75520557e-02, 7.22018331e-02, -3.12602217e-03, -1.25468737e-02, -7.47711360e-02, -2.03310829e-02, -2.69841291e-02, 2.61542527e-03, -1.81987248e-02, -3.92815396e-02, 5.36724031e-02, -5.23874164e-03, 2.57385094e-02, -4.11339737e-02, -8.30467418e-02, 1.55592691e-02, -7.88610131e-02, -9.97506455e-02, -9.08303857e-02, -3.27079669e-02, -1.04548447e-01, 5.23013286e-02, -9.30094346e-02, -7.59542584e-02, -1.28353294e-02, -6.97992668e-02, 6.74791485e-02, 1.70884244e-02, -5.21561550e-03, -3.54666933e-02, -2.96952240e-02, 2.92974412e-02, -7.14903697e-02, -4.35508862e-02, -3.51969823e-02, 8.04615580e-03, -1.39705669e-02, -6.05331287e-02, -5.87032996e-02, -4.38189022e-02, -5.16319834e-02, -1.77587848e-02, 4.96627875e-02, -7.08776638e-02, 2.33352953e-03, -1.68272462e-02, -5.14676310e-02, -5.87062389e-02, -2.80926581e-02, 2.19681542e-02, 3.90152894e-02, -6.49102181e-02, 7.41453171e-02, 9.39096808e-02, 7.29454532e-02, -9.26201120e-02, -4.70227376e-02, 7.06697851e-02, -1.30674466e-02, 6.84710220e-02, -7.80514181e-02, 1.34423433e-03, -6.13217391e-02, -5.93705364e-02, -2.17984021e-02, -6.44606352e-02, 7.25355968e-02, -5.59923947e-02, -2.58797947e-02, 7.44955689e-02, 5.14150318e-03, 4.11804877e-02, -6.67644739e-02, 1.01833500e-01, -2.90761498e-04, -8.51794183e-02, 3.36985812e-02, -2.75097769e-02, -4.02953625e-02, 3.56334224e-02, -3.89461666e-02, -3.02654132e-03, 6.94958940e-02, 6.28702492e-02, -2.21715644e-02, 2.06853654e-02, 4.77507338e-02, 4.01734002e-02, 1.37300557e-02, 3.90338413e-02, -5.81522062e-02, 2.34805401e-02, 5.40024750e-02, 4.78125140e-02, 6.45308644e-02, 7.29386657e-02, 4.59913723e-02, 7.11086988e-02, -2.40203701e-02, 6.18482530e-02, 3.81375030e-02, -7.46465027e-02, 1.33909099e-02, 4.26243804e-02, -9.24864709e-02, -1.13870919e-01, -7.13690370e-02, 7.80051248e-03, 1.03146382e-01, -7.27950856e-02, 5.07166144e-03, -7.62903467e-02, -2.15247385e-02, -5.17679043e-02, 8.53483230e-02, 2.61128861e-02, -2.21706796e-02, -8.75895172e-02, 1.89271234e-02, 2.70351488e-02, -2.09646504e-02, 1.03068784e-01, 5.46890274e-02 },
    { -9.27518979e-02, -3.10590528e-02, -5.14016934e-02, 4.14095186e-02, 7.94081576e-03, -2.39123023e-04, -5.12942709e-02, 3.66011448e-02, -7.10382462e-02, -3.38025726e-02, 3.55129503e-02, -1.30581334e-02, 8.39572996e-02, -6.44171685e-02, 1.07830554e-01, -9.36819836e-02, -2.19907463e-02, -4.28217538e-02, -6.11671582e-02, -8.02922919e-02, -6.72982037e-02, -2.01989282e-02, -1.39805451e-02, 7.89742917e-02, 7.89692476e-02, -7.28155971e-02, 1.90112591e-02, 3.07131447e-02, -7.00841174e-02, 2.36536898e-02, 3.88562270e-02, 1.11764472e-03, -4.35423106e-02, 8.82883072e-02, -5.56573868e-02, 3.87760624e-02, 6.14924282e-02, 2.29949933e-02, -7.03277737e-02, 6.13123588e-02, 7.76321888e-02, 6.67200908e-02, 6.42520487e-02, 7.41580874e-02, -5.80506846e-02, -2.50731725e-02, 2.47988123e-02, -5.37742116e-02, 4.10768762e-02, -4.27780598e-02, 5.66283949e-02, -6.58919215e-02, -7.08194748e-02, 7.83199742e-02, 3.33383889e-03, -5.77043444e-02, 7.31759705e-04, 2.85549201e-02, -2.51036100e-02, 6.92375749e-02, 6.27851188e-02, -6.39589727e-02, -2.67687105e-02, 1.50241610e-03, 4.25204448e-02, -6.37143180e-02, -5.17673455e-02, 7.09101930e-02, 4.48102057e-02, 6.36750506e-03, -4.56073210e-02, -1.44953253e-02, 1.26538961e-03, 4.87095788e-02, 4.36415114e-02, -2.71716118e-02, 4.19865623e-02, 7.99476877e-02, -9.46198031e-02, -1.76163353e-02, 7.48388320e-02, -2.81256605e-02, 6.83805272e-02, 7.00072870e-02, 5.23118535e-03, -8.66090879e-02, -1.21196860e-03, 9.27696656e-03, -1.09146554e-02, -5.27173989e-02, 4.92110141e-02, 2.56920923e-02, -2.73984708e-02, 3.90188047e-03, 7.33806491e-02, -2.28672344e-02, 1.58978924e-02, -6.97261617e-02, 7.46243820e-02, -7.93628469e-02, -6.89897239e-02, 3.47234644e-02, -3.33382972e-02, -1.09315380e-01, 2.37889569e-02, 1.13985494e-01, 1.18450653e-02, -3.58118974e-02, -1.81232374e-02, 4.40071225e-02, 4.33299429e-04, 3.43773328e-02, -5.50903287e-03, -1.62504986e-02, 9.80254784e-02, 6.41518161e-02, -3.68446931e-02, 2.26871185e-02, -7.29373842e-02, 4.44990629e-03, -3.98749337e-02, -1.20119192e-02, -4.63580787e-02, 6.85559437e-02, -3.35931331e-02, 8.88313632e-03, -1.17193215e-01, -2.84344032e-02 },
    { -6.44224882e-02, -1.69656159e-05, 9.64631662e-02, 9.20865983e-02, -1.08196922e-01, 7.40628242e-02, 5.47092110e-02, 7.03685358e-02, 9.45858425e-04, -7.86154792e-02, 2.65052598e-02, 1.43242255e-02, 3.07701733e-02, -5.67466989e-02, -4.59613204e-02, -6.57900721e-02, -6.36813277e-03, -7.43319392e-02, -3.59782465e-02, 5.45919649e-02, -1.44575220e-02, -5.77723794e-02, 9.95665789e-02, -1.83392037e-02, 7.03202039e-02, -3.50535773e-02, 4.51062620e-02, 9.56937224e-02, -6.55947104e-02, -2.25852206e-02, 4.75520976e-02, 8.30797385e-03, 2.57656798e-02, 3.82347777e-02, -6.36311695e-02, -1.12405844e-01, -8.65361318e-02, -6.06440287e-03, 1.18415505e-02, -1.58632398e-02, -5.23967482e-02, 7.04971403e-02, 7.93979913e-02, -9.48570967e-02, 7.74798989e-02, -1.14104990e-02, -5.97140333e-03, 2.43982133e-02, -1.02159744e-02, 7.30092265e-03, -6.35337159e-02, 1.43612577e-02, 2.53151469e-02, 5.54127842e-02, -7.86184892e-02, 6.13240227e-02, 3.41186374e-02, -6.81916773e-02, -6.96581751e-02, -1.25587527e-02, 6.44041076e-02, 1.97423287e-02, 1.06048696e-01, -2.42898278e-02, -4.03361395e-02, 5.47280833e-02, 3.13370973e-02, -1.82694029e-02, -4.78126928e-02, -5.50855957e-02, -4.55970168e-02, -1.72994807e-02, 1.15521237e-01, -8.88209045e-03, -8.24333057e-02, 6.12573698e-02, 3.17120180e-02, -4.12174948e-02, 1.55043937e-02, 7.75626721e-03, 4.58328202e-02, 3.53228417e-03, -4.45307195e-02, 8.08984786e-02, 1.95580851e-02, -6.63995594e-02, -2.58845277e-02, 1.23154838e-02, -3.93013209e-02, -9.12383124e-02, 4.78767492e-02, -6.72234073e-02, 2.39637215e-02, 3.46677825e-02, 1.61208976e-02, 4.51528244e-02, 5.86229339e-02, 2.44823713e-02, -5.33397757e-02, 6.22855239e-02, -6.85794558e-03, -8.15865025e-02, -6.03734814e-02, 4.92835268e-02, -4.29189019e-02, 2.26930324e-02, 7.40969628e-02, 5.46918157e-03, -1.88426359e-03, -2.84429360e-02, -3.43064852e-02, -7.74463499e-03, -4.56506722e-02, 7.34664798e-02, 9.21369269e-02, -5.30759618e-02, -2.77067311e-02, -1.00671075e-01, 6.02517948e-02, 1.28385974e-02, -5.97688965e-02, -7.22281858e-02, 8.29821080e-03, -3.28072831e-02, -3.95880416e-02, 3.34582515e-02, 3.68906818e-02, 3.89809906e-02 },
    { 3.46068367e-02, -6.65383786e-02, -2.59658340e-02, 4.59261797e-02, -2.27553044e-02, -2.11996082e-02, 7.15406192e-03, -3.11607532e-02, 1.63610876e-02, 6.90684393e-02, 3.27083096e-02, -4.37389985e-02, 4.05801553e-03, 6.53950796e-02, -5.20940684e-02, 1.00956634e-02, -2.28484161e-02, -5.89266978e-02, 3.70655395e-02, -9.89590585e-02, -4.83776294e-02, 1.63145736e-02, -2.22951900e-02, 9.14534405e-02, -3.11709903e-02, -5.45095280e-02, 9.83437747e-02, 2.96740793e-02, -6.30462095e-02, 7.04455823e-02, -4.34473716e-03, 3.32366452e-02, -7.48817846e-02, -3.96430232e-02, 4.92014876e-03, -3.83675434e-02, -8.00587311e-02, 4.87976708e-02, -6.21448597e-03, -2.74146069e-02, 3.65776196e-02, 7.58230239e-02, -8.47927555e-02, 9.65547934e-02, 2.65121646e-02, 6.39827102e-02, -9.72305536e-02, 3.00920848e-02, -5.57813421e-02, 2.08466239e-02, -4.31662761e-02, -8.37174058e-02, 6.29698783e-02, -1.81980934e-02, 1.79833490e-02, -1.20742144e-02, -5.65444119e-02, -7.38530830e-02, -1.30921351e-02, -4.46753129e-02, -1.80377271e-02, 1.83272455e-02, 8.06497559e-02, 6.73005208e-02, -2.58627050e-02, 6.51467294e-02, 8.94309431e-02, 3.35657969e-02, -4.18280773e-02, 1.25660328e-02, -4.31348942e-02, 2.78458465e-02, -1.38903670e-02, 4.74754311e-02, 9.05471295e-03, -5.07305637e-02, -4.16169316e-02, 5.75877242e-02, -3.92415226e-02, 6.35137409e-02, -5.14435582e-02, 7.12359399e-02, 7.72361457e-02, -6.44025505e-02, 7.19143674e-02, 1.12494277e-02, 5.99141940e-02, 6.19767718e-02, -9.00255665e-02, 1.96950883e-03, 2.79779062e-02, 1.33251837e-02, -9.00897011e-02, 6.25727372e-03, 4.56531905e-03, 5.34426272e-02, -1.01111056e-02, 2.46802606e-02, 3.18173296e-03, -7.74101391e-02, -7.32116401e-02, -1.70804095e-02, -1.88352782e-02, -1.04679659e-01, 3.86632010e-02, 8.98087397e-03, -2.22427212e-02, -4.94842641e-02, 4.03811224e-02, -3.69446166e-02, 2.63000224e-02, 7.29072466e-02, 8.64473656e-02, -2.47151293e-02, -5.19024730e-02, 4.22874540e-02, -1.78570468e-02, 1.66446585e-02, 5.41900424e-03, -1.48517387e-02, -4.31469828e-02, -7.22305924e-02, 2.02861428e-03, 7.82341361e-02, -7.89938793e-02, 8.45882967e-02, 1.76814327e-03, 4.63535972e-02 },
    { -1.92771740e-02, -8.82921442e-02, -1.74612459e-02, -4.33639921e-02, 5.91864586e-02, 4.70490567e-02, 3.95336561e-02, 3.04320380e-02, -5.45155481e-02, 5.60875088e-02, 6.74062967e-02, -6.50583133e-02, 2.60012075e-02, 5.22582792e-02, 3.80175970e-02, 2.95685865e-02, 5.90001866e-02, -2.04089321e-02, 2.17129961e-02, 6.45632371e-02, -9.25057679e-02, -1.86573751e-02, -2.68309750e-02, 4.23984043e-03, 7.99915642e-02, -9.86647047e-03, -2.27799062e-02, 4.16581258e-02, 5.48278876e-02, -7.58684427e-02, -5.56256734e-02, 1.90549064e-02, -1.51625816e-02, 9.71961990e-02, -1.72337424e-02, -1.02974378e-01, 7.65726436e-03, 9.75371376e-02, 2.76758708e-03, -2.97197211e-03, -4.79086079e-02, -1.81190278e-02, -2.48778705e-03, 5.39162308e-02, -2.88701784e-02, 1.91299450e-02, -3.56235057e-02, 8.78530070e-02, 2.13961247e-02, 3.12127247e-02, 2.46813055e-02, -3.08941118e-02, 1.13338437e-02, 6.31898791e-02, 3.98954861e-02, 9.00252014e-02, -9.00048316e-02, -5.85590675e-02, -5.80233485e-02, -1.02795940e-02, 5.50329220e-04, 4.78261560e-02, 1.00038804e-01, 4.34852811e-03, 4.26743217e-02, -4.04426530e-02, 4.48857376e-04, -5.43822013e-02, 8.97121876e-02, 3.43297608e-03, 6.17033690e-02, -6.12863898e-02, -1.00302799e-02, 2.13295650e-02, -8.35953504e-02, 1.19178649e-03, -3.20266560e-02, 6.14560731e-02, -4.29619215e-02, 7.62568042e-02, 1.53186386e-02, -6.84781447e-02, 5.63412942e-02, -5.17890975e-02, 3.92021909e-02, -8.65356997e-02, 9.65439975e-02, -1.04559148e-02, -8.54674876e-02, -8.38588178e-02, -6.39567971e-02, 5.76995127e-02, -8.28201510e-03, -6.25326410e-02, -1.09038525e-03, -1.25970105e-02, 7.47224912e-02, -1.27411485e-02, -6.31033182e-02, -3.26629765e-02, -3.42921056e-02, 5.98254204e-02, 1.06556872e-02, -2.16641407e-02, 5.10534607e-02, -3.76187786e-02, -6.69901893e-02, -5.52028604e-02, 6.99563650e-03, 4.24054116e-02, 3.86720188e-02, -5.33640310e-02, -3.86807546e-02, 6.36957884e-02, -8.20288062e-03, 5.27691394e-02, -3.33261378e-02, -8.62379670e-02, 9.83408988e-02, 2.19533890e-02, -3.90229523e-02, -5.03246076e-02, -3.96415927e-02, -6.55812153e-04, 1.23001011e-02, 9.78877544e-02, -1.06445476e-01, -5.19033968e-02 },
    { -7.97760636e-02, 4.96524908e-02, -2.80210953e-02, 1.83167271e-02, 6.33578300e-02, 5.09168096e-02, -3.19747925e-02, 7.46414624e-03, -2.43069064e-02, -2.87564192e-02, -4.25010659e-02, -2.89993957e-02, -5.39104417e-02, 9.47605539e-03, 4.48066257e-02, 8.35213661e-02, 5.65197505e-02, 7.17013255e-02, 2.14179493e-02, -5.42313382e-02, -3.47796176e-03, -6.97595999e-02, -6.29406199e-02, 9.10216719e-02, 5.20713907e-03, 4.00297791e-02, -5.78248315e-02, 7.34668598e-02, 7.08095804e-02, -3.40088494e-02, 3.35364789e-02, -3.60418893e-02, 8.02306384e-02, 4.48325090e-02, 7.18166083e-02, 3.43214013e-02, 8.15312192e-02, -6.88605085e-02, -3.89829241e-02, 1.31214894e-02, 5.00033461e-02, 8.43380168e-02, -6.08495362e-02, -5.60982786e-02, 4.71050031e-02, 7.74432570e-02, -6.21915832e-02, 5.80845289e-02, -7.72463977e-02, -8.20242018e-02, -8.11614969e-04, -2.58637499e-02, -5.78570366e-02, -8.84595737e-02, -1.61669850e-02, 5.55446260e-02, 7.87502155e-02, 5.25184162e-02, -6.92611411e-02, -6.86317161e-02, 7.53280446e-02, 6.22089505e-02, -3.12942937e-02, -6.70410246e-02, 4.57492396e-02, -6.96089789e-02, -2.54567116e-02, 4.45591770e-02, 1.67397447e-02, -5.41739315e-02, -2.95695383e-02, -6.92929700e-02, 6.57889247e-02, 6.35032132e-02, -8.82822126e-02, -6.40285909e-02, 5.16790040e-02, -1.28575806e-02, 3.93274128e-02, 1.51432669e-02, 3.57211716e-02, -6.58255070e-02, -8.14004689e-02, -5.73484823e-02, -4.14720327e-02, -3.44633535e-02, -1.33012021e-02, -8.28833319e-03, 4.65528145e-02, -2.11129971e-02, -6.33742958e-02, -8.56848583e-02, 9.55535658e-03, 3.88277471e-02, 5.58773652e-02, 1.95233971e-02, 1.69541501e-02, 2.57056560e-02, 2.27885731e-02, 9.10187066e-02, 2.11508782e-03, -7.45149702e-02, -7.28315860e-02, 9.18751583e-03, -6.88719284e-03, -2.21447255e-02, 3.83633338e-02, -6.27553910e-02, 5.74782398e-03, 6.91578016e-02, 5.89664057e-02, -2.39528064e-02, 1.39107043e-02, -2.68994123e-02, -2.91103441e-02, 4.70487028e-02, 5.12862159e-03, 7.96014965e-02, 1.80185605e-02, 6.44261464e-02, -6.34976700e-02, -7.03471154e-02, -6.34703264e-02, 3.17432247e-02, -5.88448942e-02, 5.20748571e-02, 8.12974274e-02, -6.02882355e-02 },
    { 5.21780597e-03, -2.05227081e-02, 2.23170333e-02, 4.68454137e-02, 1.89866424e-02, -1.19695745e-01, -6.35338156e-03, 2.47463398e-02, 3.32997479e-02, -3.78749473e-03, 1.55757675e-02, 5.12357652e-02, 5.99711947e-02, 6.72889799e-02, -5.48161753e-02, 6.06372058e-02, -4.56181131e-02, 1.89669849e-03, 5.56617603e-03, -1.50791435e-02, 6.11972027e-02, 7.53259882e-02, 1.82320699e-02, 4.79607210e-02, -4.72750850e-02, 1.97878014e-02, -6.42729700e-02, 5.91249131e-02, -4.34327088e-02, -6.79043606e-02, 2.31592953e-02, -5.57711236e-02, 7.75656998e-02, -4.31248248e-02, 4.58270777e-03, 3.27488105e-03, -3.73693258e-02, -8.21748078e-02, -2.85294559e-02, 1.10479735e-01, 4.67570275e-02, 2.22884770e-02, -5.49501628e-02, -5.70753776e-02, 3.56872119e-02, -5.85981384e-02, -2.91018896e-02, -6.08607046e-02, 3.25232297e-02, -4.37919535e-02, -6.62144944e-02, -4.02133875e-02, 2.13512611e-02, -7.60745108e-02, 6.10847548e-02, -2.75796484e-02, -1.31150000e-02, -6.88094273e-02, 7.64664412e-02, -6.57334700e-02, -9.29691717e-02, 5.55921048e-02, 7.02726841e-02, -3.11656520e-02, 5.32351155e-03, 7.33449832e-02, 5.06185405e-02, 2.45851520e-02, -3.06660254e-02, -1.12986257e-02, -3.09359152e-02, 2.94257216e-02, 3.15750688e-02, -1.44226640e-01, 5.15772775e-03, -3.80304754e-02, 5.89417182e-02, 9.78866741e-02, -1.25709176e-02, 1.40470099e-02, -2.13177805e-03, -4.58665714e-02, -7.27854967e-02, -7.80734345e-02, 1.88651681e-02, -3.43488157e-02, 3.53393853e-02, -7.86799639e-02, 7.64649361e-02, 8.40390474e-02, 6.25195801e-02, 1.23674180e-02, -8.34705904e-02, -3.20208892e-02, 7.48929521e-03, -3.55716818e-03, -6.23097345e-02, -4.95571941e-02, -1.67110488e-02, 5.34121469e-02, 6.86231032e-02, -8.67488682e-02, 3.89855243e-02, 8.99773836e-02, -9.23613273e-03, -8.69234577e-02, -1.65679343e-02, 5.22901118e-02, 1.28274988e-02, 5.19414321e-02, 1.18789468e-02, -9.70275700e-02, 5.81126809e-02, 1.19442441e-01, 3.42496410e-02, 7.35762268e-02, -3.28625756e-04, 1.09571032e-01, 8.19554329e-02, -4.97630797e-03, 4.02051844e-02, 4.69052494e-02, 4.33702767e-02, 3.11557148e-02, -2.98598278e-02, -5.64554520e-02, 3.40477973e-02, 2.30318345e-02 },
    { 5.62947579e-02, 7.62628987e-02, 1.09078931e-02, -7.63191506e-02, 5.56841167e-03, 3.84455249e-02, 9.03209075e-02, -9.00307670e-02, -1.42633989e-02, 2.86672059e-02, -6.02995120e-02, -4.45931293e-02, -1.75005558e-03, 7.98012763e-02, -1.00067899e-01, 3.24867330e-02, 4.98658828e-02, 3.84854041e-02, 5.27000353e-02, -8.89451131e-02, 4.55319285e-02, -9.96895209e-02, -3.22493464e-02, -2.29259729e-02, -5.04330657e-02, -1.42237339e-02, -8.71627964e-03, 2.07742229e-02, 3.97495963e-02, 7.30933389e-03, 8.49422663e-02, 1.99727397e-02, 4.21784930e-02, 1.56284124e-02, -5.27400263e-02, -1.78262219e-02, 7.81954676e-02, 4.43682894e-02, -9.90382582e-03, 3.96108255e-02, -3.13030258e-02, 9.88207385e-03, 6.90730289e-02, -5.60761150e-03, -4.80349502e-03, -5.41852638e-02, -8.22778642e-02, -4.29861294e-03, -2.17692964e-02, 5.81819192e-02, -8.22255015e-02, 7.78530389e-02, 7.22901896e-02, -3.98631357e-02, -1.89921483e-02, 2.57342272e-02, -2.91962773e-02, -2.26086508e-02, 1.09787695e-02, -7.07141161e-02, -5.02586737e-02, -6.39102235e-02, -4.63716052e-02, -9.92448777e-02, -1.09618053e-01, -7.79742599e-02, 4.07141373e-02, 5.62405176e-02, 1.63974892e-03, -6.43900260e-02, -6.91371262e-02, 1.21922316e-02, 4.29329760e-02, -1.16929643e-01, -4.04180139e-02, -1.59258898e-02, -5.01665212e-02, -3.44369896e-02, -4.57897857e-02, -7.44215250e-02, -2.22615562e-02, 6.40073717e-02, -6.09908029e-02, 8.91958922e-02, -3.23427171e-02, 7.18601421e-02, -5.53197525e-02, -2.11575069e-02, 4.58738320e-02, -1.65578630e-02, 7.58221745e-02, -5.04400395e-02, 4.65827622e-02, 6.58712070e-03, -5.32020517e-02, -1.25927636e-02, 1.00047337e-02, 9.48008969e-02, -6.34476691e-02, 3.32949460e-02, 1.19599272e-02, 1.02592856e-01, 2.67865583e-02, 2.83559039e-02, -3.28670740e-02, 9.54149514e-02, -5.86510152e-02, 3.90198007e-02, -7.28818029e-02, 4.87403162e-02, -7.93353170e-02, -1.68733150e-02, 7.14243799e-02, 3.19675095e-02, -4.09188345e-02, 3.40935551e-02, -1.72600895e-02, 1.04957763e-02, 4.16334271e-02, -1.57879610e-02, -9.28316917e-03, -8.99463594e-02, -4.83579822e-02, 3.95045169e-02, -2.23484281e-02, 2.84246262e-02, -1.92858782e-02, -9.47543830e-02 },
    { 2.78293304e-02, 7.12873563e-02, 9.64669213e-02, -3.76338735e-02, -7.06449598e-02, -4.08467948e-02, 4.04255800e-02, -9.26659182e-02, -6.89021721e-02, -1.27735371e-02, -7.93110579e-02, -1.05683859e-02, -3.83401476e-02, -4.63725291e-02, -1.37761533e-02, -4.54969071e-02, -1.00986667e-01, 6.63108304e-02, 9.31019243e-03, -6.69284016e-02, 3.60106193e-02, -8.49447101e-02, 6.51661605e-02, -3.94048681e-03, -7.09885955e-02, 9.83318873e-03, -2.68588606e-02, -5.40367104e-02, 4.92978022e-02, 9.12798643e-02, 1.83956753e-02, -1.48870321e-02, 1.43003492e-02, -1.25450986e-02, -7.46943504e-02, -6.58096820e-02, 3.32694426e-02, -6.26306310e-02, 4.72172946e-02, -6.39881147e-03, 7.22641200e-02, -2.79815048e-02, 5.36539741e-02, 3.62479761e-02, 6.04398958e-02, 6.38694987e-02, -6.19424693e-02, -3.76713881e-03, 4.15945463e-02, -4.47552912e-02, 2.14606337e-02, -2.99478546e-02, 9.60419141e-03, -1.21582681e-02, -5.95351867e-02, 6.10097349e-02, 8.25538859e-03, -8.99065472e-03, 6.17227629e-02, -6.78929687e-02, -5.51507212e-02, 9.07071158e-02, 5.08719645e-02, 5.71830980e-02, 9.72641073e-03, 1.68366283e-02, 5.43622188e-02, -5.00023402e-02, -2.78632399e-02, 8.88351947e-02, 6.02525473e-02, 6.40418753e-02, -4.16370593e-02, -3.78065854e-02, 7.58006983e-03, -1.08690234e-02, -9.77570936e-02, 4.50751036e-02, 3.65574248e-02, 7.66109526e-02, -1.33288624e-02, 7.17243599e-03, -4.72267978e-02, 9.00476724e-02, -3.54922935e-02, -3.68042700e-02, 3.89865972e-02, 3.85486931e-02, -2.69755125e-02, 1.00277294e-03, -7.32388422e-02, 8.01671203e-03, -3.10998429e-02, -8.91780257e-02, -3.44927646e-02, 5.43716066e-02, 5.60937077e-02, -7.08850771e-02, -1.17967641e-02, -1.03835754e-01, -5.74723966e-02, 7.67037496e-02, 8.79304484e-02, 2.11804435e-02, -7.53406063e-02, -1.72459129e-02, -5.74694909e-02, -3.10903303e-02, -4.21799086e-02, 5.15456917e-03, -1.64373324e-03, 6.51387544e-03, -5.26467944e-03, -9.46032852e-02, 7.82193094e-02, -7.14441482e-03, -6.35685176e-02, -1.56611521e-02, 7.50346668e-03, -6.06210791e-02, 5.82924373e-02, 5.79626225e-02, 7.43022040e-02, 7.79847726e-02, 5.20327985e-02, 5.33838291e-03, -1.88553184e-02, 2.18704622e-02 },
    { 7.81132057e-02, -6.98858919e-03, 7.44719058e-02, 1.14105102e-02, 1.86657533e-02, 6.21907599e-02, -5.20462655e-02, 6.35282369e-03, 4.79442328e-02, -6.29777908e-02, 6.08455949e-02, -5.74355200e-02, 5.67547232e-02, -6.81964532e-02, 5.57117984e-02, -3.43602821e-02, -3.43520604e-02, 2.40185186e-02, 5.69857433e-02, 5.07337190e-02, -8.52742270e-02, 5.93209229e-02, -2.35496406e-02, -7.11866980e-03, 3.76525782e-02, -4.00322266e-02, 1.33410553e-02, -5.52216657e-02, -6.29359260e-02, -5.25549203e-02, 5.99220172e-02, -4.67202216e-02, -2.19956208e-02, 6.07856959e-02, -4.41234000e-02, -5.48873618e-02, 7.27478042e-02, -4.27336916e-02, 6.30996749e-02, -9.89144444e-02, -8.80924112e-04, -5.38498908e-03, 4.89103124e-02, -1.27346034e-03, -6.21589869e-02, -7.40102455e-02, -3.83895002e-02, 2.28383485e-02, 2.89068334e-02, 1.10568162e-02, 4.43018638e-02, -6.83769211e-02, -8.95318612e-02, -1.85023830e-03, 6.95698783e-02, -2.82258950e-02, -1.37752686e-02, -7.59025365e-02, 5.14491647e-02, 5.34415208e-02, 4.55159396e-02, -2.40057651e-02, -3.77231427e-02, -6.70576841e-02, -1.01335391e-01, 1.94092635e-02, 7.44836330e-02, 1.71380199e-03, 5.14241196e-02, 9.62505937e-02, -5.50790057e-02, -7.38751143e-02, 2.64098961e-02, -3.50781679e-02, -8.73521864e-02, -1.24144768e-02, -1.10500054e-02, 9.09194574e-02, -4.26994520e-04, -6.35192767e-02, 9.80686992e-02, -6.14497326e-02, 5.70454150e-02, -6.20203763e-02, -4.21101972e-02, 2.23755222e-02, -7.22679943e-02, -4.14328352e-02, -7.26279393e-02, -7.49124661e-02, -2.07722392e-02, -7.22952485e-02, -5.99374324e-02, 5.15204109e-02, -5.64744473e-02, 5.76981008e-02, 3.00180838e-02, 1.87603664e-02, 2.20005214e-02, 6.73193261e-02, -4.35753316e-02, 3.58447246e-02, 4.73260507e-02, 3.72753181e-02, 1.51776336e-02, 8.74804482e-02, 3.90666872e-02, -4.43609916e-02, 3.89215946e-02, 5.45868948e-02, 5.02589494e-02, 8.92158896e-02, -8.38377923e-02, -3.86216715e-02, 6.16794303e-02, 4.41209674e-02, -4.69876863e-02, -3.39180008e-02, 3.93130630e-02, 3.26181427e-02, 4.31854315e-02, 6.32279888e-02, 8.96990821e-02, 8.06603059e-02, 4.60037030e-02, 1.05273044e-02, 1.28687536e-02, 7.57479146e-02 },
    { 6.19306117e-02, 2.07392592e-02, 5.71396649e-02, 1.57704987e-02, 2.39917226e-02, 3.25590707e-02, -1.05081141e-01, 6.86779693e-02, -4.28916998e-02, -6.20249622e-02, -1.09138349e-02, -1.64333414e-02, 6.78739324e-02, 2.98213474e-02, 1.65778510e-02, -3.43606994e-02, -5.12554236e-02, 6.98494550e-04, -4.21083346e-02, -1.84837580e-02, -2.12969561e-03, -6.38373196e-02, -5.34680523e-02, -4.03221659e-02, -1.06109632e-02, 6.49940968e-02, 1.68194585e-02, 4.66740504e-02, 2.90328749e-02, 7.70680159e-02, -8.74560419e-03, 1.02225430e-01, -6.74406365e-02, 9.43598896e-02, -5.86180128e-02, -3.48776169e-02, -3.02284099e-02, -2.68761683e-02, 4.45598103e-02, 5.71968555e-02, 7.04548508e-02, 1.03753902e-01, 5.11075966e-02, 5.43956757e-02, 4.22281772e-02, -3.15734111e-02, -8.98522139e-02, 2.15103291e-02, 5.64939342e-03, 2.47395528e-03, 3.51577438e-02, -8.17076564e-02, 9.89336334e-03, -5.64992204e-02, 5.00543639e-02, 1.00136101e-01, -2.77449358e-02, -2.00957265e-02, -3.98102291e-02, -6.77197054e-02, 6.34682411e-03, 8.47183019e-02, 9.06428173e-02, -7.15239197e-02, -2.84258388e-02, 5.28690740e-02, 8.99912640e-02, 6.54648468e-02, -2.52983868e-02, 1.84856076e-02, 2.04086825e-02, 7.50659257e-02, 9.29016527e-03, 9.06768888e-02, 4.92483005e-02, 8.89998972e-02, 6.56819418e-02, 8.04223493e-02, -5.41211292e-02, 4.55831550e-02, -5.61407395e-02, 5.72520234e-02, -5.61072212e-03, -4.93570752e-02, -7.89517462e-02, 6.10587634e-02, -9.98571608e-03, -2.36999262e-02, 2.19899341e-02, 7.06152692e-02, 6.10478297e-02, 2.96423454e-02, 2.05856338e-02, -5.30225150e-02, 4.32309434e-02, -1.82092264e-02, 1.48960240e-02, 3.07701807e-02, -4.22285590e-03, 5.56777092e-03, 8.22961181e-02, 3.06376237e-02, 7.29785264e-02, 4.20857333e-02, -4.60575111e-02, 7.72657990e-02, -4.32126299e-02, -3.60765345e-02, -6.04045615e-02, -2.80978214e-02, -1.41614005e-02, -3.80397402e-02, -7.79675841e-02, -4.82760593e-02, -4.35169600e-02, -8.91586673e-03, 2.98780273e-03, 6.56404719e-02, 1.78299658e-02, -9.74879507e-03, -1.06818795e-01, 5.59950843e-02, -9.86090209e-03, 9.28337947e-02, -1.03796814e-02, 2.83497125e-02, 6.59470409e-02, -1.92163736e-02 },
    { -2.66551301e-02, 1.91469025e-02, -2.31615603e-02, -7.71207875e-03, 6.79754689e-02, -5.12855090e-02, 5.31297326e-02, 2.83083413e-02, -6.53299913e-02, 8.24729949e-02, 9.32172015e-02, -2.92380080e-02, -1.12778563e-02, 2.95424033e-02, -1.75506528e-03, -1.44258849e-02, -3.90502885e-02, 5.54038063e-02, -3.57900262e-02, -2.16234638e-03, -4.39000577e-02, -4.81980890e-02, 6.37318864e-02, -9.20781195e-02, -3.87574732e-02, 6.95212185e-03, -2.21907906e-02, -2.09762435e-02, 1.02087632e-01, -7.58662149e-02, 1.25858723e-03, 8.36342108e-03, 5.73086590e-02, -8.01740810e-02, 1.41623244e-02, -9.73547529e-03, -1.55195054e-02, -2.51978654e-02, -1.12653393e-02, -8.04758258e-03, 2.30668820e-02, 9.34696496e-02, -6.11772090e-02, 3.12324706e-02, 7.89235532e-02, 7.10167214e-02, -5.22533692e-02, -3.66831222e-03, 7.75621608e-02, 5.64875156e-02, -5.19301035e-02, 9.98003706e-02, -5.61519600e-02, 5.19129261e-02, 7.55183175e-02, -1.60311181e-02, 8.23611394e-02, -3.61112356e-02, -2.80565340e-02, -5.92014492e-02, 6.16393276e-02, -4.83520702e-02, 9.69463363e-02, 4.39880043e-02, 3.22642131e-03, 7.93646500e-02, 1.01636365e-01, 6.91406354e-02, -1.03550730e-02, 3.87432426e-02, 6.49772063e-02, -1.55421090e-03, 7.11458251e-02, -8.12169388e-02, 1.92791619e-03, 7.92439952e-02, 2.53086891e-02, -4.34306376e-02, -4.37107272e-02, -8.93720705e-03, -6.45884573e-02, -5.86417578e-02, 5.37383817e-02, -5.59410155e-02, -4.48414572e-02, -4.14595968e-04, 1.10726096e-02, -4.13445719e-02, -4.44004200e-02, 5.26955277e-02, 8.47455412e-02, -2.92235408e-02, 6.68032169e-02, -4.34552915e-02, -1.88518222e-02, -8.98202360e-02, -2.27553174e-02, -3.01528610e-02, -4.74457927e-02, 2.86315195e-02, -8.77391770e-02, -7.93179264e-04, -4.00610194e-02, 8.24878216e-02, -2.77235862e-02, 9.73717943e-02, 5.57081103e-02, -7.97913969e-03, 2.53113862e-02, 2.78666653e-02, 5.36849052e-02, -7.69426972e-02, -4.14262433e-03, -9.37444419e-02, -6.33770004e-02, -3.96734811e-02, 2.13995716e-03, 8.42604507e-03, 2.28560325e-02, -5.36954664e-02, 2.02511922e-02, 6.81959465e-02, 6.52389452e-02, -7.79706091e-02, -3.65601364e-03, 3.34326476e-02, 8.23894590e-02, -4.55584668e-04 },
    { -1.07626125e-01, -4.72689047e-02, -1.63489394e-02, 2.93999817e-02, 3.57307307e-02, -2.20179297e-02, -1.03236385e-01, 6.74118549e-02, -5.76234842e-03, 9.63302776e-02, 6.12673499e-02, 5.09067252e-02, 5.21447621e-02, 6.85166754e-03, 1.69929005e-02, -3.75150740e-02, 9.34978202e-02, 1.09481387e-01, 1.07399106e-01, 9.05588195e-02, -8.05773884e-02, 1.54444408e-02, 4.52746339e-02, -1.49264466e-02, 3.76236252e-03, -7.92853907e-02, -6.98359460e-02, -2.77589150e-02, -5.23504755e-03, -7.02850744e-02, -2.16759983e-02, -4.36363518e-02, 3.78569625e-02, 2.52957698e-02, 2.59412490e-02, 3.40949022e-03, 5.22159301e-02, 1.08696990e-01, -2.02569794e-02, -1.80875398e-02, 5.66701442e-02, 3.36007923e-02, 1.74911395e-02, 9.43510607e-02, -4.71656695e-02, -3.51343751e-02, -6.35444224e-02, -2.90822815e-02, 8.49209204e-02, -5.07045500e-02, 5.32615446e-02, -1.82015393e-02, 9.63515192e-02, -4.97489832e-02, 9.82201174e-02, 5.10943532e-02, -3.03746015e-02, 5.96180148e-02, -7.58166909e-02, 9.34189335e-02, 5.04273083e-03, 8.61325040e-02, -1.04633709e-02, -3.55435833e-02, 4.98153754e-02, 7.22153708e-02, -6.78024516e-02, 1.90591477e-02, 2.38501355e-02, -8.74709524e-03, -6.28352314e-02, -1.52642718e-02, -5.95653290e-03, 8.29772279e-02, 1.24186441e-01, 3.94868553e-02, -5.69766015e-02, 4.00988162e-02, -1.14016365e-02, 3.67532410e-02, 3.08980234e-02, 6.52728379e-02, 6.61212802e-02, -9.38401297e-02, 6.72583580e-02, -6.10375777e-02, 8.67093056e-02, 3.32367122e-02, -4.47239839e-02, -2.14776434e-02, 4.38438021e-02, -5.64229935e-02, 5.13870157e-02, 2.64237989e-02, -2.47214697e-02, -2.31937342e-03, -5.56093119e-02, -2.00774726e-02, 1.79977100e-02, 2.02799775e-02, 9.35777873e-02, -4.02003787e-02, -1.03647612e-01, -4.44964431e-02, 3.63318436e-02, -3.09824571e-02, -8.13457966e-02, -2.79837251e-02, -9.83365811e-03, 6.67042732e-02, 1.53370891e-02, -1.03589401e-01, 2.28779502e-02, 6.34179562e-02, -6.49627969e-02, -3.83579824e-03, -6.10357150e-02, -6.51861131e-02, 4.70348559e-02, 5.22151440e-02, -3.42384842e-03, -6.98540732e-02, -3.01909074e-02, 2.39644218e-02, 9.62781608e-02, 3.61770801e-02, 2.33117100e-02, -1.31773716e-02 },
    { 9.68048871e-02, 2.04811953e-02, 4.09945287e-02, -3.70386019e-02, -3.67455371e-02, -3.94121706e-02, 2.34683752e-02, -5.70603739e-03, -5.14269508e-02, -5.58390357e-02, 3.90504897e-02, 1.89868454e-02, 7.00512752e-02, 5.33576086e-02, 1.38298003e-03, 4.65400554e-02, -1.95594206e-02, 4.44322452e-02, -6.70677051e-02, 6.00483976e-02, 6.84374124e-02, 1.84358601e-02, -5.49619496e-02, -4.19071354e-02, -8.78456160e-02, -1.96720921e-02, 3.31602693e-02, 6.78059757e-02, -5.84444450e-03, -6.00006199e-03, 1.74175780e-02, 7.38343131e-03, -1.73165798e-02, 4.85760421e-02, 9.60828084e-03, 1.97241846e-02, 5.83397448e-02, 2.62360573e-02, -5.49557172e-02, -7.83899128e-02, 5.20254932e-02, -7.47807771e-02, 3.38107087e-02, 2.49350350e-02, 5.14852181e-02, -8.98850784e-02, -4.11672592e-02, 4.16517071e-02, 6.48086965e-02, -7.93347135e-02, -6.48454502e-02, -4.26231362e-02, 3.68071012e-02, -3.94676179e-02, 2.87929513e-02, 6.51533529e-03, 7.92695358e-02, -2.59323400e-02, 5.06642424e-02, -2.44477950e-02, -1.59827061e-02, -3.14451233e-02, 7.34742582e-02, 4.58364114e-02, 2.60218754e-02, 4.16640788e-02, 4.23731916e-02, 6.46198094e-02, 8.15388039e-02, 2.38674451e-02, -1.87688190e-02, -5.87642305e-02, 4.81468290e-02, 6.28861934e-02, -9.71607789e-02, 1.38677256e-02, 3.14161256e-02, -2.02910081e-02, -3.53919528e-02, 5.25650829e-02, -7.94282705e-02, -5.75539917e-02, -6.80751055e-02, 5.64858876e-02, 3.02271103e-03, 1.80975404e-02, -4.35494538e-03, 6.26713736e-03, -4.38034907e-02, -6.94495440e-02, 3.37929577e-02, -2.27957647e-02, -1.70823634e-02, 6.81314021e-02, 5.16974181e-03, 3.36887911e-02, 7.81556591e-02, 8.56408551e-02, 2.63614617e-02, 2.01697722e-02, -2.16129068e-02, 7.99117386e-02, 4.19756072e-03, 3.18074115e-02, 2.09300704e-02, 6.49888813e-02, 9.48870257e-02, 1.04493955e-02, 7.25009292e-02, -1.42730977e-02, -1.55680757e-02, -5.41621968e-02, 7.69725963e-02, -6.07498251e-02, -8.77397321e-03, 5.59134036e-02, 6.37004822e-02, -4.73749638e-02, 3.38326581e-02, -1.59196127e-02, 6.65004551e-02, -3.42289656e-02, -4.88012284e-02, -8.15503001e-02, -4.42200303e-02, -5.80189042e-02, -6.85205311e-02, -6.55795038e-02 },
    { -8.21125582e-02, -1.86746567e-02, -7.87383094e-02, 3.67510580e-02, 5.42933010e-02, -1.53929116e-02, -2.12942958e-02, 4.56794724e-02, 1.51651567e-02, 1.39282653e-02, 3.31524312e-02, -3.26585397e-02, 3.39641795e-02, 2.61299815e-02, 1.64707918e-02, 1.03619145e-02, 2.49593183e-02, 6.20172098e-02, -7.30083734e-02, 4.52389307e-02, 2.67934725e-02, -4.29855585e-02, 7.36608729e-02, 1.77373514e-02, -7.47494109e-04, -2.60848273e-02, 1.97937172e-02, 4.89085540e-02, -3.27156410e-02, -4.07106616e-02, -7.45459124e-02, -4.43098731e-02, -2.26197261e-02, -4.02373709e-02, -4.54391651e-02, -7.41043910e-02, -1.12654120e-02, -9.94768143e-02, 4.97197174e-02, 2.56940033e-02, -6.03825226e-02, 7.62798265e-02, 5.32136206e-03, -8.46700519e-02, -1.55733963e-02, 1.76020171e-02, 1.47320032e-02, 8.77786577e-02, 8.89424086e-02, -7.54210725e-02, -1.09668978e-01, -5.31827211e-02, 2.79522613e-02, -6.87575936e-02, 3.75295952e-02, 1.97644625e-02, -7.84421116e-02, -9.32494774e-02, 6.05052263e-02, -3.21273282e-02, 2.49416684e-03, 6.30470812e-02, 9.42192078e-02, 5.89526026e-03, 1.38634611e-02, 8.31473470e-02, -2.69010034e-03, -2.18664370e-02, -3.94647159e-02, 9.99905989e-02, -6.95532560e-02, -6.56239688e-02, -2.05533821e-02, -2.26022936e-02, -3.50207835e-02, 3.37825045e-02, 6.08501695e-02, -1.00441344e-01, -4.63517010e-02, -3.00217588e-02, 5.27444333e-02, 4.00428809e-02, -2.16456614e-02, 5.42507730e-02, -2.48084292e-02, -7.55724087e-02, 3.55928130e-02, -9.24373493e-02, -2.03002039e-02, 1.81084294e-02, -5.07868417e-02, 6.10451251e-02, -2.61197872e-02, -2.27901600e-02, 2.63543408e-02, 3.86827849e-02, 3.09973657e-02, -5.83585724e-02, 3.12158074e-02, 7.29082059e-03, -7.27130175e-02, -8.62954035e-02, -2.29079872e-02, -8.11520964e-02, -5.26202209e-02, -4.64808680e-02, 5.86524233e-02, -3.45365517e-03, -7.96071663e-02, -3.24650519e-02, -1.81261282e-02, -5.24502918e-02, -7.10944012e-02, -8.31791107e-03, 1.16058923e-01, -5.24131162e-03, 3.60409990e-02, -1.61130317e-02, -4.77917641e-02, 4.21909913e-02, 4.19707149e-02, -7.11801872e-02, 2.56203450e-02, -9.38786659e-03, -5.20026423e-02, -5.09398840e-02, -6.41283095e-02, -1.71214342e-02 },
    { -1.71224587e-02, -1.37312906e-02, 3.33553851e-02, -2.15687603e-02, -9.45983455e-02, 4.09697853e-02, 2.95183770e-02, -2.92878840e-02, 5.29820845e-02, -6.64765667e-03, 4.23809513e-02, -3.37873166e-03, 9.38227326e-02, 4.53941114e-02, 9.11237225e-02, -2.55207177e-02, 3.89308035e-02, 8.09539929e-02, -2.58004386e-02, 4.09046747e-03, -2.00364273e-02, 2.84092072e-02, 1.00711146e-02, -3.76314335e-02, 1.00095242e-01, -8.76992196e-03, -9.04915389e-03, 6.05330765e-02, 6.58721253e-02, 1.46879256e-02, 1.85376965e-02, 5.37334867e-02, -5.30237444e-02, -4.61160764e-02, -7.79752731e-02, 1.19035561e-02, -1.07352972e-01, 4.41395082e-02, -3.73771787e-02, -4.47691754e-02, 6.68607280e-02, 9.29945707e-02, 8.06510225e-02, 6.33289516e-02, 4.88482714e-02, -3.93318199e-03, -6.63330257e-02, -4.72896658e-02, -2.03320235e-02, -6.41802028e-02, -8.51664990e-02, -2.32553873e-02, -2.76133465e-03, 2.59789312e-03, -4.69380990e-02, 2.51499359e-02, -5.90885021e-02, -2.14388296e-02, 8.71919915e-02, 6.10147305e-02, -2.19149925e-02, 9.18686911e-02, 1.59199815e-02, -6.21782616e-02, -6.59059361e-02, 1.65578239e-02, 4.19003516e-02, -6.83607981e-02, -2.96658389e-02, -4.06921729e-02, 5.01589589e-02, 3.19774672e-02, -3.53071131e-02, 4.00695428e-02, 4.91605178e-02, -2.28899438e-02, 3.35539319e-02, -3.99683490e-02, 1.69982500e-02, -5.73564097e-02, -2.08608285e-02, -7.43046170e-03, -2.00530719e-02, 5.78227974e-02, -7.88203329e-02, -5.18703349e-02, 8.51495042e-02, -7.62221366e-02, -6.22035712e-02, -3.32542770e-02, -2.88055353e-02, 8.98494348e-02, -6.52048811e-02, 3.09425462e-02, 1.44310463e-02, 4.63354588e-02, 8.45030919e-02, 7.24587739e-02, -8.34498182e-02, -2.93532945e-02, 8.03754255e-02, -7.97754973e-02, -2.10493226e-02, -3.49422768e-02, -4.24705930e-02, -2.44413950e-02, -2.94467490e-02, 1.55022871e-02, -5.46938963e-02, -5.68868145e-02, -2.23346520e-02, 9.28329378e-02, 5.89780025e-02, 9.04352404e-03, -1.07182667e-01, -1.24135260e-02, 4.21545506e-02, 2.78235693e-02, -1.30933952e-02, 1.52387349e-02, 1.80949755e-02, -7.84914009e-03, -3.45159620e-02, 7.74914213e-03, -2.93949302e-02, -7.58611709e-02, -1.04909139e-02, 7.64165893e-02 },
    { 6.15438540e-03, 1.87002793e-02, 6.33731708e-02, 6.59405738e-02, 7.06238374e-02, 7.29874596e-02, -1.45569369e-02, 2.15184726e-02, 6.89262599e-02, -6.17531314e-02, -6.55667111e-02, 1.70344245e-02, -2.64860387e-03, -3.36708799e-02, -1.08955152e-01, -6.46026433e-02, 3.95272113e-02, -2.18699966e-02, -1.63870491e-03, 7.96972886e-02, -1.12201851e-02, 8.30363110e-02, 1.04650877e-01, -3.83830406e-02, -4.43928391e-02, 4.93845940e-02, 2.84383688e-02, -4.51098336e-03, 9.55912545e-02, -1.98171511e-02, 1.06524423e-01, 2.06840634e-02, 1.62239149e-02, 4.14560512e-02, 3.11149396e-02, 8.69046897e-03, -5.04784919e-02, 4.37933169e-02, 4.77307886e-02, -2.95399763e-02, -1.17959762e-02, -7.88138956e-02, -5.69362417e-02, -3.79826128e-02, -1.14526395e-02, -8.07434469e-02, -5.49972095e-02, -1.71738025e-02, -4.87151109e-02, 7.02312514e-02, -9.30398032e-02, 3.52973938e-02, -6.74050227e-02, -7.42725730e-02, 3.57623771e-02, 8.95063058e-02, -6.11555241e-02, -4.83305976e-02, 7.02454671e-02, -8.37663114e-02, -6.09776005e-02, -6.59831194e-03, -5.96047044e-02, -2.80251149e-02, 5.28990151e-03, 7.77284727e-02, -7.40858838e-02, 7.11022466e-02, 6.39400557e-02, -9.71568935e-03, -2.58943047e-02, 3.24344337e-02, 2.43829452e-02, -3.23027186e-02, 1.14071369e-01, -9.83864665e-02, 3.26841027e-02, -4.86571863e-02, 1.60980839e-02, -3.69420201e-02, 4.94935736e-03, -4.02043536e-02, 5.04112318e-02, -3.56594399e-02, -1.02306083e-01, 4.31393906e-02, -7.15543106e-02, -9.74236578e-02, 7.42115360e-03, 5.44132330e-02, -4.22443040e-02, -6.91786334e-02, -8.50245431e-02, -3.95979621e-02, 1.06070796e-02, -5.48736304e-02, 9.24092531e-02, -7.52438372e-03, 3.30188945e-02, -6.84830844e-02, -3.54840141e-03, 8.12454894e-02, -3.39518189e-02, -4.54869084e-02, 2.23450027e-02, 6.75839558e-02, -7.93298185e-02, -8.13429132e-02, 1.02423178e-02, 2.78888959e-02, -2.27756854e-02, 3.42382565e-02, 1.57771017e-02, 7.19853267e-02, 3.54750194e-02, 7.90665671e-02, -7.86327049e-02, -7.49686500e-03, -4.38651219e-02, 7.13946819e-02, -2.92507205e-02, -4.60069887e-02, 1.85939521e-02, -3.30458432e-02, -2.42876410e-02, 6.02663914e-03, -4.92121279e-03, -6.10307418e-02 },
    { -7.00689945e-03, -2.44453717e-02, -8.37638080e-02, -4.58247140e-02, -2.67990381e-02, 8.15797374e-02, -8.50911066e-02, -3.63342986e-02, -3.73495407e-02, 2.76641212e-02, -4.36966904e-02, -3.07520409e-03, -2.47142930e-02, 3.10713332e-02, -7.86621273e-02, -1.23771904e-02, 5.11124767e-02, -2.09765676e-02, 6.60667345e-02, 1.12386614e-01, 3.36443856e-02, 2.53213122e-02, -4.33873199e-02, 1.55681716e-02, 8.63854289e-02, 3.49105150e-02, -4.76930328e-02, 3.52548365e-03, -5.65226637e-02, -5.69516756e-02, 5.60350381e-02, -8.34162459e-02, -1.25967851e-02, -1.09683760e-01, -1.16796903e-01, -2.37907935e-02, 2.13355273e-02, 5.30335791e-02, 3.92740779e-02, 3.15973684e-02, 9.06644564e-04, -9.02840111e-04, 2.75420621e-02, -4.50166389e-02, 4.19865549e-02, -6.66033998e-02, 9.64855496e-03, -8.05831514e-03, 6.38753874e-03, 3.00452858e-03, -5.89577034e-02, 6.35850802e-02, 4.59865555e-02, 4.39017303e-02, 5.47463000e-02, 2.80588469e-03, 1.72010697e-02, -1.40273562e-02, 5.46697676e-02, -4.64222245e-02, 3.25608775e-02, -5.53236566e-02, -8.29943195e-02, -8.15243274e-03, -3.00949868e-02, 4.05477099e-02, -6.02360591e-02, 3.01296059e-02, 4.20336351e-02, -3.34124416e-02, 3.82626662e-03, 3.83678228e-02, 7.37216100e-02, 7.31488019e-02, 9.79148820e-02, -4.66880947e-02, 7.88076818e-02, -7.21677393e-02, 7.95629993e-02, 7.33857602e-02, 4.91106026e-02, -5.39826788e-02, 5.13358833e-03, -3.63969468e-02, -1.52942948e-02, 1.99648365e-02, 1.33088520e-02, 4.60036658e-02, -8.00937880e-03, -5.36451973e-02, 2.01808382e-02, 3.02213971e-02, 1.52608892e-03, -7.57619226e-03, 6.27213717e-02, 2.84690037e-02, -4.09273021e-02, 3.32297496e-02, 7.19844103e-02, 4.47373539e-02, 6.13744520e-02, -3.06751579e-02, -3.19884904e-02, 7.89492205e-02, 4.19316366e-02, 9.80849750e-03, -4.61367331e-02, 3.59127671e-02, 4.60794894e-03, -7.83303287e-03, 5.57055064e-02, -9.46980938e-02, -4.73160930e-02, 5.85131273e-02, 3.23456898e-02, -1.81184188e-02, 5.54945581e-02, 5.49882799e-02, 2.07764525e-02, 5.35906926e-02, 5.71346804e-02, 6.10702746e-02, 5.68293184e-02, -1.36150373e-02, 1.02688625e-01, 1.13725523e-02, 1.65487756e-03, -7.32620582e-02 },
    { -4.21814285e-02, -3.23143788e-02, 3.96808907e-02, -5.26152179e-02, 8.01279489e-03, 3.93049158e-02, 2.06541624e-02, -1.92254186e-02, 2.81748902e-02, 8.37777033e-02, 1.99997444e-02, -5.55120185e-02, 2.24988814e-02, -6.79055825e-02, 5.38240299e-02, -8.68582204e-02, -2.18249615e-02, 5.83177656e-02, -1.07098622e-02, 1.79637782e-03, -5.04045784e-02, 6.12200014e-02, -9.17854905e-03, -7.41183087e-02, 9.20291916e-02, -5.78521751e-02, -7.76152089e-02, 5.68422154e-02, -8.97611678e-02, 6.34164140e-02, 8.65742788e-02, 7.77426511e-02, 8.32960457e-02, -1.71469096e-02, -1.82688292e-02, 6.61291406e-02, 2.32566502e-02, 4.14592214e-02, 7.16334805e-02, 9.72124636e-02, 9.16970707e-03, 3.70955989e-02, -4.36807834e-02, -8.12298153e-03, 8.67938623e-02, -5.66144511e-02, -6.46405146e-02, -1.65756773e-02, -6.27025887e-02, 3.24021466e-02, 7.73524567e-02, -4.50722082e-03, -1.61543470e-02, 8.87280256e-02, -6.73107803e-02, -8.32212269e-02, -5.31693846e-02, -1.34491567e-02, 8.78289808e-03, 3.83448191e-02, -3.01324166e-02, 6.40093386e-02, 1.21671557e-02, -1.36073434e-03, 4.87839058e-02, 7.17749149e-02, 4.02367897e-02, 4.92672510e-02, 3.43293846e-02, -6.73863515e-02, -2.77584717e-02, 4.18402217e-02, -1.20185561e-01, 2.65527517e-02, 3.60910371e-02, 4.97757606e-02, 8.48045424e-02, -7.85056800e-02, -2.11790595e-02, 1.29914219e-02, 1.95988063e-02, -8.74635652e-02, -7.33839050e-02, -4.94609475e-02, -5.14960699e-02, -4.74953093e-02, 7.82939494e-02, 8.76308903e-02, -8.84601753e-03, -7.21620470e-02, -4.92868125e-02, 5.84508106e-02, -4.21294244e-03, 7.42124543e-02, 4.62382287e-03, -6.58319592e-02, -2.79570296e-02, -6.99787065e-02, 5.96034490e-02, -5.40591264e-03, 2.68662088e-02, 1.55285271e-02, 2.24474166e-02, 2.69867424e-02, -1.07092887e-01, 7.12662041e-02, -1.66638289e-02, -2.97370777e-02, -4.55601215e-02, -9.58627015e-02, 2.21841838e-02, 8.68367776e-02, -5.40117919e-02, -6.04468957e-02, 2.74909288e-02, 8.49469677e-02, -4.25441898e-02, -4.57916735e-03, -2.08652616e-02, 4.76734666e-03, -6.78072497e-02, 7.63956755e-02, 1.49885649e-02, -5.29998355e-02, -1.24148605e-03, 8.08811411e-02, 5.91922142e-02, -8.73038694e-02 },
    { -5.53092314e-03, 4.18897234e-02, 1.81040391e-02, 6.14197962e-02, -6.03086501e-02, -6.51732832e-02, -3.36543620e-02, -1.14017591e-01, -9.92986560e-02, 5.87055087e-02, 6.01528436e-02, 6.98589683e-02, -5.98489791e-02, 1.40157323e-02, -8.60479698e-02, -4.42957357e-02, -3.81536670e-02, 2.14087591e-02, 1.41246952e-02, 4.27819081e-02, 5.15440553e-02, 7.45701119e-02, 9.66564193e-02, 3.09763197e-02, -1.36016523e-02, 2.17465945e-02, -3.90171334e-02, -9.60963741e-02, -5.55284843e-02, -6.38840497e-02, 7.04549551e-02, 7.91800842e-02, -2.75744703e-02, -2.83319447e-02, 2.70528905e-02, -9.74230282e-03, -1.67187992e-02, -1.02518275e-01, -9.33913980e-03, -7.56697543e-03, 2.65660696e-02, -6.66282028e-02, 4.68941554e-02, -8.96999687e-02, 8.21298510e-02, -4.37634215e-02, 1.54761970e-02, 7.23270001e-03, -3.67274880e-02, -1.60173569e-02, -5.22654550e-03, 2.59892065e-02, -2.81578880e-02, -1.62777398e-02, -4.42291722e-02, -7.39294216e-02, 5.92305921e-02, -1.13205507e-01, 7.88694099e-02, -1.02324232e-01, -1.19183093e-01, 3.19864526e-02, -1.20344609e-02, 5.28169312e-02, -4.80046794e-02, 1.96024566e-03, 3.23374085e-02, -7.24969208e-02, -9.94628221e-02, 5.58327995e-02, -3.43938172e-02, -3.82359661e-02, -5.28834946e-02, -7.65720615e-04, -6.11046366e-02, 4.41062562e-02, -5.38847875e-03, -2.82182684e-03, -5.53467236e-02, -1.11614488e-01, 1.07908100e-01, 1.54031850e-02, -6.12918250e-02, 3.61977220e-02, -2.56464090e-02, 6.63595796e-02, -5.67372926e-02, -1.35127855e-02, 2.26606373e-02, -7.46396780e-02, -5.73771223e-02, -5.67673557e-02, -4.00818661e-02, 4.76889797e-02, 2.52882894e-02, -1.06813535e-01, -1.20000541e-02, -3.63323949e-02, -2.83952802e-02, 9.28852260e-02, 7.96002895e-02, -6.93133613e-03, -3.17826085e-02, 7.10691791e-03, -3.25536542e-02, 1.98395085e-02, 7.57640898e-02, 6.40573651e-02, -6.54012486e-02, -4.75550219e-02, -1.07572392e-01, 5.97967021e-02, 1.07278936e-01, 6.37414232e-02, -4.03258093e-02, -5.58090508e-02, -4.15257588e-02, -8.53454843e-02, 6.06525801e-02, 3.12116928e-02, -5.47186052e-03, -4.92311381e-02, 1.50899524e-02, 7.01403571e-03, -4.17128615e-02, -2.54686549e-02, 5.53558134e-02, -4.36832719e-02 },
    { -5.25129698e-02, 4.31485996e-02, 8.81985128e-02, -4.85300384e-02, 1.57725197e-04, 8.11809599e-02, 1.66566558e-02, -6.35318682e-02, -3.16968560e-02, 5.52006662e-02, 8.17928910e-02, -7.22843483e-02, -1.56663638e-02, -4.72979154e-04, -3.67490272e-03, -2.28973608e-02, -8.15906152e-02, 7.87838420e-04, 1.47799272e-02, -3.87315601e-02, -7.98821077e-02, 7.27830678e-02, -4.29050848e-02, 6.58592433e-02, 3.73312347e-02, 1.67893805e-02, 7.19481334e-02, -5.64317871e-03, 2.65603438e-02, 4.78115380e-02, -9.89550352e-03, 8.72873217e-02, -4.44945917e-02, 3.03034820e-02, 8.19905400e-02, -9.53077078e-02, -4.24241461e-02, -3.49864662e-02, 3.36572193e-02, 7.46742263e-02, 9.32568535e-02, 1.47653138e-02, 7.43431523e-02, -4.47840132e-02, 5.96267022e-02, -8.10506567e-02, 7.51067847e-02, 9.38553065e-02, -4.44167405e-02, -4.21808623e-02, -2.42594089e-02, -4.41554887e-03, 3.01836146e-04, 5.10217696e-02, 3.39754559e-02, -2.93847197e-03, -8.76106024e-02, -5.05029894e-02, 1.43091129e-02, -1.91885475e-02, 2.07006801e-02, 2.83584893e-02, -3.72718275e-02, 5.01607582e-02, -8.88894424e-02, -8.29273462e-02, -4.03774604e-02, -4.53994013e-02, 5.40962406e-02, 3.04700118e-02, 1.46474782e-02, 5.92560396e-02, 8.18676129e-03, -6.20894358e-02, -9.31249484e-02, 7.40426183e-02, 7.62551650e-02, -5.56850433e-02, 4.44036461e-02, -3.82623747e-02, 1.02144614e-01, -1.66652352e-02, -2.65083164e-02, 6.15087152e-02, 4.11497951e-02, 5.36649451e-02, -3.59476954e-02, 9.27120000e-02, 7.71684945e-02, 2.20896043e-02, 3.53293754e-02, -3.61376442e-02, 1.60521865e-02, -2.53976835e-03, -6.13796338e-02, -3.67348567e-02, 5.61196208e-02, -5.56615926e-02, 8.16400349e-02, -3.72518525e-02, -9.26017202e-03, 6.98001981e-02, -6.48461059e-02, -2.51125656e-02, -5.31750023e-02, -4.37897779e-02, -3.09997611e-03, 2.43103057e-02, -3.90422232e-02, 5.47714233e-02, 4.77301981e-03, -3.27061005e-02, -5.04286923e-02, -6.64793421e-03, 6.03493713e-02, 1.54961040e-02, 1.35048032e-02, -1.14569990e-02, -5.77106066e-02, -3.06904260e-02, 7.34325647e-02, 4.54963446e-02, 8.61255527e-02, 1.32618370e-02, -9.72985327e-02, -9.33434740e-02, -4.27743681e-02, 4.14562859e-02 },
    { -6.73095733e-02, -6.00961335e-02, -1.50434915e-02, -7.76809976e-02, 1.09508038e-02, 9.08345804e-02, 2.10462250e-02, -6.16323948e-02, 4.92493995e-02, -7.49767050e-02, 7.90052041e-02, -8.52673054e-02, -4.26326022e-02, -4.66489606e-02, 2.00539851e-03, 8.10748141e-04, -4.30732146e-02, -8.56876895e-02, -1.29590435e-02, -7.09634945e-02, 6.41251057e-02, -4.84763086e-02, -1.85326524e-02, 1.80233270e-03, -7.61814862e-02, 8.86805505e-02, 4.43097427e-02, -6.21718392e-02, 1.82470456e-02, -5.79690039e-02, -2.94691436e-02, 7.15611055e-02, -7.29178712e-02, 3.48023884e-02, -8.46975371e-02, 2.23193206e-02, -5.30687124e-02, 2.40548104e-02, 1.86352879e-02, 7.66598433e-02, 3.52841988e-02, 4.61489558e-02, -5.92751913e-02, 4.92765792e-02, 9.79394838e-02, -1.72928851e-02, -8.73928368e-02, -7.56564066e-02, 8.12830869e-03, -5.63095957e-02, 3.00393328e-02, 1.45332783e-03, -5.47445826e-02, 4.63110358e-02, 6.18288144e-02, -5.35026826e-02, -1.53995277e-02, -2.04684623e-02, -2.57308781e-02, 8.83277208e-02, 8.76986086e-02, 5.99643476e-02, -9.50496867e-02, 4.95210402e-02, -2.88641322e-02, -5.42622507e-02, -1.17337909e-02, -4.96064052e-02, -4.90956381e-03, -6.16742708e-02, -7.04356208e-02, 5.71294874e-02, 5.90453409e-02, -4.50489447e-02, 6.44791648e-02, 5.20014316e-02, -4.67337780e-02, 6.00626841e-02, -6.14181980e-02, 2.41963174e-02, -2.52666771e-02, -2.37153564e-02, -3.68942842e-02, 4.74635623e-02, 1.84435081e-02, -5.81563003e-02, -3.35526392e-02, 7.34326541e-02, -4.88585234e-02, -2.43244804e-02, -5.59434742e-02, -2.49941275e-02, 1.97149180e-02, 6.34673610e-02, 6.04960099e-02, 3.86759229e-02, -8.50898400e-02, -2.78966129e-02, 1.51157742e-02, 8.25943723e-02, 7.16598108e-02, -3.62584777e-02, -8.15108865e-02, -4.01618816e-02, 3.43115702e-02, 3.49266864e-02, -6.98350146e-02, -8.77113789e-02, 6.05936535e-02, -9.14918184e-02, 5.93847670e-02, 5.52098192e-02, -2.29504053e-02, 2.19226051e-02, -4.20824625e-02, -8.04280564e-02, -1.60435513e-02, 1.42644374e-02, -7.95578286e-02, 4.58731353e-02, 1.26414290e-02, -1.10397404e-02, -2.73846276e-02, 8.16474557e-02, 4.74751592e-02, 7.21308356e-03, -2.04523536e-03, -5.08231111e-02 },
    { 2.44687647e-02, -1.05416924e-01, -1.21797184e-02, 2.81229150e-02, 6.89320415e-02, 7.61923119e-02, 3.18248644e-02, -4.48072664e-02, -8.54381844e-02, -2.27314383e-02, -1.75753124e-02, -6.33822307e-02, -5.09757660e-02, 4.24180093e-04, -1.69688347e-03, -6.39347509e-02, -2.14523450e-02, -4.39931601e-02, -8.33813846e-02, 9.03257579e-02, 1.40271317e-02, 7.49630202e-03, 1.46131739e-02, -6.13678135e-02, 2.89778858e-02, -2.64102910e-02, 2.59803981e-02, -9.59381387e-02, -1.54046128e-02, -1.40516954e-02, 3.30241546e-02, -4.73408913e-03, -3.49538103e-02, -3.99787771e-03, -2.66980715e-02, -5.02385311e-02, 2.03131065e-02, 1.82994734e-03, 3.74240130e-02, -4.66539674e-02, -9.85147431e-02, 8.06705132e-02, 5.09023853e-02, 8.78449827e-02, -8.74672609e-04, 5.73604368e-03, -2.74117738e-02, -7.67077282e-02, -7.74166808e-02, 8.82811472e-02, 1.33013174e-01, 1.18377283e-02, 4.00434248e-03, 2.81904563e-02, -4.23624441e-02, -3.95836169e-03, 8.17051996e-03, 6.65071607e-02, 8.83523896e-02, -7.15383068e-02, -3.83604653e-02, 4.29261848e-02, 2.92683430e-02, 7.23567382e-02, 5.45714796e-02, -1.34680802e-02, -2.00863164e-02, -1.76479556e-02, -5.95909320e-02, 9.68556572e-03, 8.61841515e-02, 5.42121939e-02, 9.34083201e-03, 1.60354711e-02, 3.39963362e-02, -5.57765849e-02, 5.01962192e-02, -1.10449769e-01, -8.40732157e-02, 6.55542836e-02, -3.56133170e-02, 4.96361256e-02, -6.74926117e-02, -7.27891549e-02, 7.07508400e-02, -1.67584214e-02, -1.13333622e-02, 6.96532056e-02, 6.28754422e-02, -8.23624879e-02, 9.61955786e-02, -5.98179772e-02, 1.78046878e-02, 3.40697058e-02, -1.27469283e-02, 3.49845439e-02, 2.80592497e-02, -4.00677091e-03, 5.90689853e-02, 5.16164042e-02, 3.34853232e-02, 1.18318610e-02, 4.68229130e-02, 2.75949948e-02, 2.96013989e-02, 5.10810539e-02, -2.92747766e-02, 1.01356646e-02, -3.54875550e-02, 4.99134287e-02, -8.48047435e-02, 1.72368214e-02, 5.71966432e-02, 5.11509404e-02, 7.77259097e-02, 6.02223910e-04, 3.74596864e-02, -9.41315740e-02, 9.39671993e-02, -5.64181246e-03, -3.84563915e-02, 4.31632288e-02, -2.54665930e-02, -5.98348351e-03, 1.20985592e-02, -4.38165255e-02, -5.94847463e-02, -9.68144648e-03 },
    { -4.69794422e-02, 5.42189106e-02, 7.12811053e-02, 8.61903802e-02, 4.07583341e-02, 4.20356207e-02, -6.05736524e-02, 5.05580418e-02, 6.83379397e-02, 2.48676166e-02, -7.41493851e-02, -8.86571780e-03, 6.37578368e-02, -2.87954584e-02, 2.74147093e-02, -5.55331782e-02, 5.11110686e-02, -3.32025774e-02, 2.84357034e-02, 4.97438991e-03, -4.52303663e-02, 2.18877159e-02, -5.42332195e-02, -7.34545803e-03, -8.49104896e-02, -1.12773739e-02, 6.32148981e-02, -6.65788539e-03, 8.54758918e-02, -6.97485283e-02, -6.65439442e-02, -3.75010930e-02, 1.73926000e-02, 2.26741061e-02, 5.63560501e-02, -5.41580766e-02, -9.33085531e-02, -5.32582179e-02, -5.28769866e-02, -2.58023161e-02, -6.42218217e-02, 2.98288427e-02, -4.40541953e-02, -7.98740759e-02, -5.09368144e-02, -4.73350212e-02, -5.27520292e-02, -5.15471399e-02, 8.49056393e-02, -2.83186007e-02, 4.42803651e-02, 2.72002239e-02, -2.39575449e-02, 1.94600448e-02, 7.77166411e-02, 7.34068826e-03, -6.46384209e-02, 3.41395102e-02, 3.59149873e-02, 5.49071170e-02, 1.85691398e-02, 5.36599383e-02, -3.13949324e-02, 6.20145649e-02, 4.87654507e-02, 7.69018456e-02, 9.83313322e-02, -8.55957195e-02, 8.36368203e-02, 4.90156412e-02, -1.94633920e-02, -4.27423939e-02, -2.05113031e-02, 6.74289986e-02, -5.43831810e-02, 7.98302740e-02, 3.64415683e-02, 1.20018311e-02, 6.61064759e-02, 5.25087671e-05, 6.45375848e-02, -8.95350203e-02, 1.97689002e-03, 7.24027753e-02, 2.48951348e-03, 3.33883390e-02, 1.10093877e-02, -4.29919064e-02, -2.98557859e-02, -3.95497456e-02, -3.98735655e-03, 7.99931884e-02, -2.13722456e-02, -3.25192064e-02, -7.55238393e-03, -1.97398365e-02, 6.42539412e-02, 2.08529830e-02, -5.72039932e-02, 5.00337183e-02, -3.36802714e-02, 3.42457891e-02, -7.00274557e-02, -8.83303881e-02, -4.03227173e-02, -2.38342118e-02, -1.22252014e-02, -2.19461750e-02, 7.11707920e-02, 2.27402411e-02, -1.02915786e-01, -6.41978085e-02, 2.01139953e-02, -7.71256257e-03, -3.19187269e-02, 2.52740514e-02, 8.09757337e-02, 1.28956847e-02, -3.22858281e-02, -9.23399478e-02, -1.13944244e-02, 6.36386573e-02, 1.04159676e-01, -3.68923955e-02, 4.97871190e-02, 1.68093033e-02, -5.41097857e-02, -7.80177191e-02 },
    { -7.89689571e-02, -4.94135059e-02, -9.48914587e-02, -4.53404114e-02, 2.03992613e-02, -2.63641831e-02, 3.31373215e-02, 1.16828613e-01, -2.62066852e-02, 7.93946460e-02, 7.15240240e-02, -7.41240457e-02, -3.05888732e-03, 6.41352534e-02, -3.23284827e-02, -4.31760475e-02, -1.20107941e-02, 8.31716731e-02, 2.66508833e-02, 4.05729096e-03, -1.58727784e-02, -7.62901455e-02, -4.14323285e-02, -8.64377022e-02, -4.92857993e-02, 1.24214804e-02, -1.46307098e-02, 4.97108400e-02, -6.27772510e-02, 3.00176702e-02, -8.78417343e-02, 1.01139411e-01, -5.59635041e-03, -5.56903630e-02, -4.11013477e-02, 2.53485385e-02, 7.50873610e-02, 1.30787892e-02, 4.74058278e-02, -7.35711381e-02, 2.87765861e-02, 5.12282290e-02, -5.72058111e-02, 8.36128592e-02, 3.91187333e-02, -9.28008184e-02, 1.95552930e-02, 4.94582355e-02, 9.20735821e-02, -8.19515586e-02, 3.25026736e-02, 4.48005050e-02, -3.27411443e-02, 2.05977093e-02, -2.54099630e-02, 5.97669408e-02, 5.13495095e-02, -8.39135498e-02, 8.00641328e-02, 5.03732227e-02, -7.19382092e-02, -1.79842860e-02, 8.08532164e-02, 7.61304796e-02, 1.63126681e-02, 1.10446652e-02, 3.14689353e-02, 8.86538327e-02, 5.28774783e-02, 2.54148450e-02, 6.28899112e-02, 6.91232905e-02, 1.08655781e-01, 1.00945748e-01, -1.02061657e-02, -2.22748779e-02, -6.64344504e-02, 3.47019434e-02, -7.26329461e-02, -3.10130231e-02, -3.57055776e-02, -2.06708498e-02, -1.62215512e-02, -7.86401853e-02, 7.32523352e-02, -6.49565980e-02, -1.97588070e-03, 5.73672950e-02, -5.68660907e-02, 2.94319913e-02, 3.78759019e-02, -5.30999340e-03, 7.79178552e-03, -1.11195698e-01, -2.73087453e-02, -5.97004294e-02, 3.22837271e-02, 6.58424757e-03, 6.23574927e-02, -2.44979709e-02, 6.53140917e-02, -5.76216057e-02, 2.62999441e-02, 7.34147131e-02, -4.81472211e-03, 5.52900843e-02, -6.19655140e-02, -1.19979971e-03, -3.93494517e-02, -6.45431876e-02, -2.77085211e-02, -3.40458192e-02, 6.33815825e-02, -4.22276594e-02, 4.31035012e-02, 2.75210608e-02, 9.88861769e-02, -4.24812548e-02, -1.25042358e-02, -3.01889908e-02, -3.98468226e-02, -9.02823582e-02, -3.64142284e-02, -3.82347591e-02, 9.68240798e-02, 7.45916814e-02, -1.34395650e-02, 4.23257984e-02 },
    { -8.29235241e-02, -9.92508829e-02, -3.16878259e-02, -5.06502613e-02, -4.39771079e-02, 7.16572925e-02, 5.75125739e-02, 7.47299492e-02, 1.37172185e-03, 8.54571834e-02, -2.19355356e-02, -7.71381259e-02, 1.01742543e-01, 2.46213377e-02, 3.46972123e-02, 6.04906045e-02, 5.26198745e-03, -1.67253967e-02, -8.21395218e-02, -6.49004877e-02, -1.09102158e-02, -1.74059067e-02, 5.56110702e-02, -6.33856058e-02, -2.88347136e-02, -7.90148824e-02, 5.56449741e-02, -5.48315011e-02, 5.88617735e-02, -1.54472068e-02, -8.71968046e-02, -1.56433135e-02, 3.18727107e-04, -3.80184781e-03, -8.85343850e-02, -3.39438394e-02, -7.87954554e-02, 3.74906883e-02, 4.06277068e-02, -8.78851041e-02, -3.39064598e-02, 7.64112175e-03, 1.01356015e-01, 4.39745001e-02, 1.06501728e-01, -8.14314708e-02, -3.16372849e-02, 4.10989895e-02, -9.01037548e-03, 5.26727438e-02, -7.02101812e-02, -1.03368416e-01, -6.68380708e-02, -6.50747195e-02, 9.50299669e-03, -6.57563563e-03, -8.35465044e-02, 7.90127739e-02, 8.24868232e-02, 8.98949951e-02, -3.14789303e-02, -7.19636902e-02, 9.35447365e-02, -5.27925342e-02, -1.63619239e-02, 7.87829012e-02, 1.62193030e-02, -9.09667239e-02, -3.13354246e-02, 4.58450094e-02, 1.15833646e-02, -5.12545593e-02, 7.03810006e-02, -2.62726359e-02, 4.91977595e-02, 8.57642964e-02, -4.05763043e-03, -3.92904617e-02, 7.95247220e-03, 8.37266296e-02, 5.78810498e-02, 3.93100418e-02, 4.24597487e-02, -2.93305051e-02, 8.80873427e-02, 6.00221306e-02, 9.45506990e-02, 6.76253065e-03, 7.73738921e-02, -7.96025395e-02, 4.32735831e-02, 7.57028582e-03, 5.14766201e-02, -4.12665606e-02, -5.16350679e-02, 7.76340216e-02, 8.81528333e-02, -2.66893059e-02, -1.17654083e-02, -2.28061937e-02, 4.84771058e-02, 5.25574423e-02, 1.20835891e-02, -5.58119640e-02, 1.92792341e-02, 1.01389140e-01, -5.42255268e-02, -6.14887848e-02, -8.64152447e-04, -5.98975345e-02, -3.68798897e-02, 9.36885774e-02, -6.73992978e-03, 4.23147976e-02, 3.78223136e-02, 5.39487228e-02, -7.47148544e-02, 4.83959913e-03, 1.08351439e-01, -2.99862921e-02, -4.96776812e-02, -7.70715922e-02, 8.47718194e-02, -6.30483730e-03, -4.80428040e-02, 6.03417158e-02, -8.25207531e-02, 5.72005985e-03 },
    { -4.26727580e-03, 2.78782323e-02, -8.36825594e-02, 2.47554760e-02, -4.86542173e-02, -5.06601259e-02, 4.47547957e-02, 6.06436357e-02, -2.83171944e-02, -2.09226646e-02, 9.56887379e-02, 5.42836003e-02, -3.73009853e-02, -5.74098788e-02, -9.93824750e-02, -9.15746018e-02, 6.94485232e-02, -6.12324588e-02, 9.57124773e-03, 3.60300876e-02, 4.38148156e-02, -7.90542215e-02, 2.69839261e-02, -4.43405509e-02, 6.23548217e-02, 1.18827760e-01, -8.44658166e-02, -4.53157909e-02, 4.65576071e-03, -9.44015086e-02, 1.96658354e-02, -1.32806133e-02, 1.68328341e-02, -4.88840155e-02, -1.88099907e-03, -4.19686995e-02, -6.51072199e-03, 3.65853347e-02, -2.79465783e-02, 4.51364852e-02, 1.29744932e-02, 7.94647187e-02, -5.62371360e-03, 3.55555676e-02, 5.37865907e-02, -8.13120678e-02, 2.60422900e-02, 8.61690789e-02, -6.12412766e-02, -6.01006970e-02, 3.70114781e-02, 6.91355616e-02, 4.69171181e-02, 8.90935585e-02, 7.88075477e-02, 7.69248754e-02, 8.30562860e-02, -7.77503029e-02, 5.75536937e-02, -8.43435079e-02, -2.17627622e-02, 3.75514105e-02, -5.54850511e-02, 5.89609891e-03, -3.68477628e-02, -3.74314487e-02, -4.16096486e-03, -6.62769228e-02, 1.78405289e-02, 3.11328713e-02, 3.75400372e-02, -3.22548710e-02, 9.27861594e-03, -6.77295402e-02, 6.07622713e-02, 8.26609805e-02, -8.76908097e-03, 6.68470263e-02, -1.56836826e-02, -8.35314319e-02, -8.23386908e-02, 6.11234456e-02, -5.53356521e-02, 9.49227139e-02, 9.97158978e-03, 3.70139144e-02, -1.01768170e-02, -4.62574093e-03, -4.11487147e-02, 1.62675336e-04, -2.41356287e-02, -2.53030993e-02, -7.10852584e-03, -7.89222643e-02, 5.40208556e-02, -2.88343318e-02, 3.61697786e-02, -2.03444678e-02, 7.81407431e-02, 8.33753869e-02, -2.17755884e-02, -4.44124732e-03, 4.68487926e-02, -3.84932607e-02, -3.52455825e-02, -4.12612148e-02, -8.49383771e-02, -4.14361432e-03, 2.09606886e-02, 6.84201792e-02, -3.83867025e-02, 6.58631325e-02, 7.79399425e-02, -1.92372371e-02, -7.31857046e-02, 3.19831185e-02, -4.13863845e-02, 1.20939827e-02, 4.86120395e-02, 2.72509791e-02, 7.71007836e-02, 7.07805827e-02, -2.75931079e-02, 8.24010670e-02, 9.68418121e-02, 7.43938088e-02, 6.01347722e-02, 1.01795919e-01 },
    { 6.14429545e-03, -7.10357353e-02, 5.20204678e-02, 2.60275453e-02, -3.34121250e-02, -4.49951552e-02, 4.13483605e-02, 1.63304713e-02, -4.24607145e-03, 1.24078328e-02, 4.73121181e-03, 2.30116509e-02, 4.42790128e-02, 3.82390395e-02, -5.70536628e-02, 1.87841151e-02, -4.31093201e-02, -3.11598480e-02, 3.47249955e-02, -8.54802653e-02, 1.00378618e-02, 6.96089566e-02, -5.06205186e-02, -2.51140271e-04, -4.30464596e-02, -8.80410895e-03, -5.45479134e-02, -1.68272611e-02, -6.47944286e-02, 9.30228308e-02, -9.07898396e-02, 5.27832955e-02, 9.62356031e-02, 5.16666770e-02, 2.59476225e-03, 5.09971865e-02, 4.54169959e-02, -2.82410961e-02, -5.92561848e-02, 2.14649551e-02, -1.57891251e-02, 6.60400763e-02, -3.07184923e-02, 6.34867698e-02, 4.16911393e-02, 6.32530004e-02, 5.09388465e-03, -3.62393912e-03, -4.09676433e-02, -9.51802060e-02, -1.02070302e-01, 3.76563072e-02, -2.23719701e-02, 4.89938706e-02, 6.01143800e-02, 8.47218856e-02, -6.42631054e-02, 2.31780000e-02, 7.15351477e-02, -6.44408613e-02, -6.30233884e-02, -3.70284952e-02, -1.43697783e-02, 4.23296727e-02, -3.37500274e-02, 4.18013297e-02, 8.08980595e-03, -7.40003139e-02, -8.68666694e-02, -1.41920801e-03, 8.64174515e-02, 5.72198294e-02, 2.33607404e-02, 5.33886142e-02, 2.97020227e-02, 6.10259250e-02, -1.09522799e-02, 9.92043391e-02, 5.77919856e-02, 5.84794246e-02, 1.24480911e-02, 2.65733246e-02, -1.14672696e-02, 4.76468578e-02, -1.65294347e-04, -5.16406894e-02, -3.65261622e-02, -1.00244455e-01, 2.71915551e-02, -2.11364254e-02, 1.61252320e-02, -6.75217882e-02, 1.31199490e-02, -3.56630348e-02, -2.00876631e-02, -3.85931171e-02, 7.07304254e-02, 2.97513586e-02, 9.46118496e-03, 5.26200235e-02, 6.77032173e-02, 5.29021919e-02, -6.72784969e-02, -5.11454716e-02, 4.50358614e-02, 2.89942082e-02, 9.61889774e-02, 8.29699561e-02, -2.70856228e-02, 1.01652285e-02, -1.05524346e-01, -6.68382049e-02, 2.81451177e-02, -4.35127988e-02, -6.24583475e-02, -8.55224431e-02, 2.02500704e-03, 1.14430413e-02, 8.19050446e-02, 2.14897171e-02, -7.24701793e-04, -7.11293221e-02, 2.03493573e-02, 8.56608078e-02, -9.37045217e-02, -7.21984655e-02, -4.70787771e-02, 5.49289770e-02 },
    { 3.55232395e-02, 5.81297949e-02, 1.03561697e-03, 1.43709090e-02, -5.18840253e-02, -8.99921879e-02, 3.68624479e-02, -8.32639486e-02, 7.65805840e-02, -8.03665165e-03, -1.94368828e-02, 4.87161279e-02, -7.00207055e-02, 3.94259058e-02, -8.11185464e-02, -1.57888550e-02, 8.74727592e-02, -1.56796109e-02, -3.08266450e-02, 7.99251124e-02, 3.67050171e-02, -5.13563864e-02, 3.16680670e-02, 2.38394625e-02, -9.05003399e-02, 6.39256090e-02, -9.66967940e-02, -4.34971936e-02, -2.20464431e-02, -6.27506524e-02, 2.86242459e-02, 7.92146847e-03, 8.38835463e-02, 5.41045777e-02, 2.27252599e-02, 9.49348584e-02, -1.19645577e-02, -2.13929787e-02, 8.30856934e-02, -1.12206228e-02, -1.01507278e-02, -3.75994295e-02, 1.85025600e-03, 4.94385622e-02, 3.78800631e-02, -1.05628157e-02, -4.31512557e-02, 5.71362711e-02, 9.41215362e-03, 3.15222787e-05, -7.72386193e-02, 6.27711490e-02, 3.38907726e-02, -3.43488380e-02, -8.15186873e-02, -5.82453655e-03, -6.99460581e-02, 1.31771425e-02, 1.39447227e-02, -5.98669276e-02, -5.17533273e-02, -5.71583398e-04, 4.56646569e-02, 4.70282361e-02, 4.41968441e-02, -5.44603765e-02, -6.16554804e-02, -2.94004548e-02, -4.21384275e-02, -7.69519433e-02, -6.78751990e-02, 5.41928932e-02, 3.32467444e-02, -2.16009784e-02, -1.38955032e-02, 3.30636650e-02, 6.52876347e-02, -5.69204055e-02, 5.57889007e-02, 4.70654033e-02, -6.03165366e-02, -8.46773088e-02, -9.26310495e-02, 3.96820791e-02, -5.84726222e-02, 7.08147464e-03, -1.77264009e-02, 4.74427529e-02, -2.55024014e-03, -4.64034677e-02, 2.89410725e-02, 3.07652652e-02, -5.82272559e-02, 7.25428388e-02, -4.94911335e-02, 4.56067584e-02, -5.82581572e-03, 7.94654414e-02, 5.27127422e-02, 4.07472402e-02, 6.62984326e-02, 1.09685935e-01, -7.07716271e-02, 9.34333429e-02, -8.90832208e-03, -9.68983546e-02, 2.09489912e-02, 6.41282499e-02, 3.10433246e-02, 4.13734429e-02, -7.91657194e-02, -9.17826742e-02, -9.93424654e-02, -4.37223911e-02, -4.60193381e-02, 6.76840171e-03, 4.34408858e-02, -5.01758158e-02, 2.05272902e-03, 1.95123293e-02, 2.58807521e-02, -8.29328895e-02, 2.97254212e-02, -1.57309789e-02, -5.79753742e-02, 4.36230153e-02, 1.17545329e-01, -2.22345777e-02 },
    { 6.08921014e-02, -7.88400099e-02, 1.82807278e-02, 6.35288805e-02, -3.94985750e-02, -6.61913827e-02, -9.40903872e-02, -6.24544211e-02, 3.60108502e-02, 6.91491589e-02, -9.20968652e-02, 2.05841218e-03, -1.67047195e-02, -4.11523320e-02, -5.49376942e-02, -8.86114165e-02, 3.42878364e-02, -5.58814406e-02, -4.03282838e-03, 5.71245365e-02, -4.62913737e-02, -5.85848652e-02, -2.89301435e-03, -1.84439607e-02, -5.97156845e-02, -9.33224335e-02, 4.68419865e-02, -5.05218580e-02, 8.19359645e-02, -7.09978491e-02, 1.73808392e-02, -4.28883843e-02, -5.73661327e-02, 5.27590588e-02, -2.79176440e-02, 3.14851925e-02, -6.72979057e-02, -1.19294912e-01, -6.50744215e-02, 9.70349982e-02, 5.71605079e-02, -5.90876751e-02, 2.74701533e-03, 1.31445248e-02, 3.89960520e-02, 5.46407849e-02, 2.85539068e-02, 5.00578173e-02, -6.88524544e-03, -5.20115495e-02, -5.34701496e-02, -3.47167216e-02, -6.18794821e-02, -1.20090332e-03, -4.46492620e-02, 4.11280654e-02, -6.37037382e-02, -4.27143835e-02, -3.05115357e-02, -7.06310123e-02, -2.41635386e-02, -6.06038496e-02, -6.42743483e-02, 8.59862119e-02, 2.32693888e-02, -9.93088819e-03, -8.61972570e-02, 4.32781242e-02, -3.00740376e-02, 4.64350507e-02, -6.49418831e-02, 1.33064799e-02, -1.67307653e-03, -5.01808338e-02, 1.27223553e-03, 8.54305625e-02, -3.64719927e-02, -5.40632457e-02, -1.15393206e-01, -1.16489172e-01, 5.28651029e-02, 3.83148305e-02, 4.28240001e-02, -6.84406459e-02, 1.03041545e-01, 8.25361833e-02, -7.34562501e-02, 7.45737180e-02, -2.41733342e-02, -7.88388774e-02, 4.42074835e-02, 1.78289786e-02, -6.56636208e-02, -6.15329072e-02, 3.91525105e-02, -2.13008448e-02, 2.41705868e-02, -5.74525259e-02, 7.05219209e-02, 3.87173966e-02, 7.75805861e-02, -5.07816784e-02, -5.75792082e-02, -5.32565936e-02, -7.40333796e-02, 9.43537429e-02, 7.71801621e-02, -1.00889485e-02, -6.55523986e-02, -1.08992510e-01, -5.39512523e-02, 6.90371320e-02, 7.66582713e-02, -1.58881955e-02, -1.21452790e-02, 4.58543785e-02, 5.11189438e-02, -2.99346875e-02, 9.10195187e-02, -3.22490521e-02, 1.58589184e-02, -7.45216906e-02, 3.93593051e-02, -8.58055986e-03, 3.01594716e-02, 9.12197307e-03, 5.52088283e-02, 9.78393294e-03 },
    { 3.73739041e-02, 2.72015575e-02, -6.38612881e-02, -7.69134909e-02, -6.63985983e-02, 6.75937608e-02, -1.13033958e-01, -5.61555326e-02, 6.49746880e-02, 9.91703123e-02, 3.30623351e-02, -1.07272286e-02, 1.94976255e-02, 7.29914084e-02, 9.15606320e-02, -1.24421529e-03, 5.14651425e-02, 2.22522281e-02, -2.27885507e-02, 5.41867614e-02, -1.00445179e-02, -8.49578604e-02, -7.09401816e-02, 7.46757165e-02, -8.42021033e-02, 8.39945823e-02, 1.05950348e-02, 4.68607899e-03, 2.34857481e-02, -4.52040508e-02, 1.31649086e-02, 8.51592496e-02, 3.00943665e-02, -5.35053983e-02, 6.58857748e-02, -2.14370936e-02, -5.85717782e-02, 4.71959077e-03, -7.80928582e-02, -7.63112828e-02, 2.40098294e-02, 9.74892005e-02, 3.12062148e-02, -8.02217051e-02, 7.68692344e-02, -1.00591600e-01, 6.05203994e-02, 1.64040383e-02, 9.22628343e-02, 4.66082059e-02, 5.95370941e-02, -6.15168512e-02, -6.92127123e-02, 9.41551551e-02, -9.01001766e-02, 3.14883105e-02, -8.95863473e-02, 2.09024418e-02, -5.22437356e-02, -4.43554707e-02, 5.06739952e-02, -5.73362038e-02, 1.26028238e-02, 1.93000361e-02, -3.31052989e-02, 7.43717402e-02, -1.92060750e-02, 1.44087775e-02, -7.78133199e-02, 6.46786019e-02, -3.18061151e-02, 1.45234773e-02, 3.91103625e-02, 7.60646984e-02, 3.80664542e-02, 4.26324718e-02, 1.98508855e-02, -7.77766854e-02, -7.00599477e-02, 1.30402930e-02, 7.24429786e-02, 7.45667741e-02, 7.11548924e-02, 7.66609684e-02, 4.40558493e-02, -3.95533852e-02, 1.62444916e-02, 6.20844923e-02, -3.52141671e-02, -5.36379113e-04, -4.84067798e-02, 7.81589895e-02, 1.69488862e-02, -3.40222828e-02, 4.61683907e-02, -7.84141272e-02, -5.97185791e-02, -6.86827153e-02, 6.18248582e-02, -1.02002844e-01, -6.67200983e-02, -2.00649034e-02, -6.26750961e-02, 3.80381010e-02, -6.64394423e-02, -3.92775685e-02, 3.00344620e-02, 3.29779088e-02, -9.50733572e-03, 3.41496319e-02, -8.81444588e-02, -7.25529715e-02, 4.35988009e-02, -3.14037618e-03, -4.86168787e-02, 2.52426639e-02, 1.12122847e-02, 3.08938008e-02, 3.09253037e-02, 1.16830654e-02, -4.04801108e-02, 7.81169534e-02, -3.12419841e-03, 4.76491004e-02, -6.58037588e-02, 7.41715431e-02, 3.38718966e-02, 6.04612306e-02 },
    { 5.13823517e-02, -6.03660829e-02, -4.58692685e-02, 5.63328825e-02, -3.09293158e-02, 4.77363206e-02, -4.78638522e-02, -3.56549695e-02, 1.27077219e-03, 3.40859555e-02, 4.61229756e-02, 4.49413620e-02, -6.58572912e-02, -6.56129494e-02, 5.66970967e-02, 1.81672405e-02, -2.66597867e-02, -3.34639437e-02, 7.77522773e-02, 5.86613752e-02, 5.56185935e-03, -1.57920960e-02, -3.69621217e-02, -2.61450373e-02, -4.82771844e-02, 7.93432444e-02, 8.36662110e-03, -5.46282679e-02, -3.60548757e-02, 4.68513034e-02, -4.96346913e-02, 7.38940537e-02, 5.03014661e-02, -3.72027382e-02, 2.75678094e-02, -6.57569319e-02, -2.53709443e-02, 1.44124003e-02, -6.01413138e-02, -8.98473337e-02, -4.97750677e-02, 7.25009292e-02, 7.59799629e-02, -7.81407431e-02, 5.90965748e-02, -3.83925997e-02, -2.46924162e-02, 3.79202254e-02, -3.79171446e-02, 2.75010671e-02, -5.26804961e-02, -1.21525666e-02, -2.19955835e-02, -7.55050182e-02, 8.90277885e-03, 4.79103513e-02, 1.76985152e-02, -4.43864539e-02, -4.51432019e-02, -7.13736489e-02, -7.07801580e-02, -1.14684869e-02, 7.54871666e-02, -3.46860178e-02, 7.52323866e-02, 6.14554510e-02, -7.52066225e-02, 1.89097337e-02, -7.60503411e-02, 9.10485983e-02, 7.09284395e-02, 3.05932313e-02, 8.86323825e-02, 6.15421422e-02, 5.18803000e-02, -3.24400477e-02, 6.65961429e-02, -2.32582241e-02, -4.77719307e-02, 1.07492208e-02, -8.70514438e-02, 6.89833239e-02, -5.50479367e-02, 4.19517094e-03, 7.97004774e-02, -5.17439581e-02, 2.73957029e-02, 5.76816965e-03, 3.27256061e-02, -4.31259871e-02, 1.13365138e-02, 6.88653514e-02, -7.53571689e-02, 6.15306571e-02, -2.31438614e-02, -4.38897759e-02, -1.26410658e-02, -5.98475225e-02, 4.95473929e-02, -1.10213142e-02, -7.11070076e-02, -6.20017760e-02, 5.90934185e-03, -2.44727153e-02, 1.49918534e-02, 9.65464767e-03, -1.38277598e-02, -4.34232131e-02, -3.17736939e-02, -6.70170486e-02, -9.07011405e-02, -3.23591009e-02, -4.00097342e-03, -3.32233682e-02, 5.64310551e-02, -1.85740702e-02, -6.74056783e-02, 5.15426360e-02, -4.27810475e-02, -4.59661372e-02, -7.70065784e-02, 8.19238052e-02, 3.82638164e-02, 2.99028028e-02, 3.38957459e-02, 5.43805733e-02, 7.42777139e-02, 7.45104030e-02 },
    { 1.44588295e-02, -7.15942606e-02, -1.10027501e-02, -7.09552467e-02, 4.60806973e-02, 1.50303282e-02, -7.69300386e-03, -6.70443149e-03, -9.83428396e-03, -1.24626728e-02, 7.11133927e-02, 4.44002524e-02, 8.03800300e-02, -6.40664473e-02, -4.29397449e-02, 1.85882545e-03, 1.57051161e-02, 1.66768488e-02, 7.45627284e-02, -2.29646750e-02, 3.39579806e-02, 2.33307499e-02, -6.69093430e-02, 5.64489421e-03, 2.98048258e-02, 4.91643399e-02, -2.02324390e-02, 5.38511164e-02, -3.59313302e-02, 3.84714827e-02, -1.22903503e-01, 6.21547736e-02, -2.79879123e-02, -8.52419398e-05, 9.69783813e-02, -7.84656107e-02, -7.04630017e-02, -1.59666911e-02, -6.22412264e-02, 6.03492148e-02, -5.85167743e-02, -4.47720066e-02, 4.31258008e-02, 4.67728451e-02, -3.40804048e-02, -7.27766901e-02, -3.24332900e-02, -4.29459289e-02, 1.14596486e-01, -3.93823870e-02, -3.90335992e-02, 1.21453665e-02, 2.71430761e-02, -6.60178717e-03, 7.85664916e-02, -6.65262640e-02, -2.19452428e-03, 1.86909027e-02, 1.20082498e-02, 6.77977279e-02, -1.92471910e-02, 3.11253872e-02, -2.68112682e-02, -6.88589215e-02, 3.12229712e-02, 2.97909342e-02, 7.49939010e-02, 6.21970445e-02, 3.83809656e-02, -6.98489174e-02, 1.85051130e-03, -1.16146943e-02, 8.67942050e-02, 8.42561722e-02, -6.21228665e-02, -2.56023984e-02, 2.58671888e-03, -7.53802955e-02, -1.07027655e-02, 1.50129767e-02, 1.04362428e-01, -5.49907051e-02, -2.18466911e-02, -7.09554479e-02, -1.29286041e-02, -4.57911082e-02, 6.45301342e-02, -5.97138517e-02, -3.30477916e-02, -7.49594122e-02, -5.03488742e-02, -2.15566661e-02, 7.89049044e-02, -7.74242282e-02, -6.54190034e-02, -4.14683521e-02, 4.97824047e-03, -1.25536816e-02, 6.84219971e-02, -8.90508369e-02, 7.17067719e-02, 7.80763403e-02, 5.50500490e-02, -6.07321262e-02, -6.10087588e-02, 1.02989189e-01, 4.22797017e-02, -2.01667305e-02, -7.71614760e-02, -5.75101003e-02, -8.50286931e-02, 2.40695998e-02, -1.43023757e-02, -3.02575855e-03, -3.65729406e-02, -1.19070197e-03, 4.60989168e-03, -5.67450486e-02, -5.33660240e-02, 5.61992526e-02, -9.71697271e-03, -2.22257003e-02, -5.17308898e-02, 3.78765278e-02, -2.45707985e-02, -7.21635073e-02, -7.80517906e-02, -7.96838999e-02 },
    { -5.44480383e-02, -7.07412064e-02, 5.07742427e-02, -9.44555923e-03, -2.58881636e-02, -8.94038379e-02, -4.86251339e-02, 6.94813058e-02, 5.27269654e-02, -6.64152503e-02, 7.01492094e-03, -4.34153415e-02, -2.88173445e-02, -5.39941946e-03, 1.21259491e-03, -1.17968051e-02, 5.85092157e-02, 4.21799943e-02, 1.00174202e-02, -7.41238296e-02, 2.29676720e-03, 1.63384639e-02, 7.56593943e-02, -1.57230031e-02, 7.69375265e-02, 2.10312195e-02, -1.05556563e-01, 8.52114499e-06, -4.31239903e-02, 7.51378611e-02, 7.12878779e-02, -9.23677459e-02, -5.29233553e-02, -6.20174818e-02, 2.32783481e-02, -4.50855494e-03, -5.75262168e-03, -2.39734035e-02, -2.36660689e-02, 7.61752799e-02, -6.72838986e-02, -9.77608468e-03, 3.27511057e-02, 6.76777288e-02, -4.19849828e-02, 9.38183367e-02, -2.78563183e-02, -8.03719386e-02, -2.69620419e-02, -1.57000348e-02, 6.33942783e-02, 5.94496839e-02, -2.83729192e-02, -1.99645329e-02, 5.18322326e-02, 5.53480946e-02, -1.99575145e-02, -4.20582443e-02, 8.41926131e-03, 2.83439793e-02, 4.39902432e-02, 8.47773775e-02, -7.02059567e-02, -6.63945219e-04, -6.68302774e-02, 9.50035751e-02, 6.77804500e-02, 1.33795384e-02, -2.99059488e-02, 2.90031191e-02, -2.01016180e-02, -8.32868144e-02, 2.44355537e-02, 3.66453454e-02, 5.43960035e-02, -4.17670142e-03, -1.24000674e-02, -1.79076958e-02, 1.30261704e-01, 1.01968780e-01, -4.10067290e-02, 9.79816774e-04, 4.07219604e-02, 3.71507779e-02, 7.40810558e-02, -4.27689366e-02, 3.41799892e-02, -3.65342014e-02, 8.76901373e-02, 7.29914457e-02, 4.84792218e-02, -1.11916554e-04, -6.91919997e-02, -8.56388807e-02, -4.89751883e-02, 1.51579399e-02, 5.07915504e-02, 3.60526480e-02, 1.29420413e-02, -8.35845843e-02, 5.86036928e-02, -5.28358221e-02, 9.63168666e-02, 5.99993318e-02, 5.68085834e-02, -8.75786692e-02, -7.54475668e-02, 5.49375340e-02, 6.01088628e-02, -2.32176818e-02, 2.97929961e-02, 6.83834776e-02, -7.02489093e-02, 2.10356060e-02, -5.67538626e-02, 2.38729455e-02, -1.48682967e-02, -3.99789438e-02, 5.07530570e-02, -2.54670475e-02, 1.17831808e-02, -5.28249294e-02, 5.73008284e-02, -4.76672687e-02, 5.01097515e-02, 5.41819111e-02, -4.45715562e-02, 1.53022669e-02 },
    { -5.26230447e-02, 8.20087641e-02, -3.89521569e-02, 5.54802865e-02, 3.50772031e-03, -2.45570182e-03, 6.08604103e-02, 3.51623558e-02, 2.24339869e-02, -1.61187612e-02, 6.08290024e-02, -6.32720366e-02, -6.68953136e-02, -2.50401851e-02, -8.39308277e-02, 6.78360537e-02, -2.14743316e-02, -5.55712283e-02, 1.41221704e-03, -8.75834450e-02, 2.98747662e-02, -2.09128950e-02, -9.33358818e-02, -2.50018705e-02, 2.95105949e-02, -5.25461882e-02, -1.03722475e-01, 4.97952923e-02, 1.84315164e-02, -3.42777483e-02, -2.73298044e-02, 3.29397582e-02, 3.30713093e-02, 3.33883390e-02, 8.84265581e-04, -2.96083856e-02, 5.36831953e-02, -8.72314349e-02, 5.70847373e-03, -3.75529937e-02, 7.27701336e-02, -1.04928285e-01, -7.70708025e-02, -9.15645715e-03, 3.28251719e-02, 4.41391990e-02, -6.26628697e-02, 2.41362303e-02, 2.99773142e-02, 4.03618347e-03, -9.22207013e-02, -6.68812077e-03, -3.81875336e-02, -3.11755184e-02, -6.03731386e-02, 2.50015147e-02, -6.49373159e-02, -2.80931294e-02, 3.48068178e-02, 1.89584475e-02, 6.15285747e-02, -3.96781936e-02, 6.49276674e-02, 8.84050038e-03, 6.31821007e-02, -2.89072078e-02, -7.32631236e-02, -6.60416260e-02, 5.63822351e-02, -6.30199239e-02, 3.27304634e-03, 3.50697562e-02, -1.05587393e-01, 3.63168307e-02, 2.07786821e-02, -9.30741429e-02, -5.41862436e-02, 1.76006686e-02, 3.67918685e-02, 2.49311961e-02, -3.74575295e-02, -2.06938572e-02, 4.64201197e-02, -9.13217366e-02, -3.00499126e-02, -3.66621464e-02, -3.43273468e-02, -9.61192548e-02, 5.37960231e-02, -6.39183307e-03, -4.62867022e-02, 3.29648778e-02, -6.41269982e-02, 1.89484041e-02, -2.85112970e-02, 5.24382293e-02, 2.50663441e-02, 6.90543503e-02, 2.69076489e-02, 2.44869199e-02, 2.90135276e-02, -1.79447662e-02, -4.71717939e-02, 9.48173273e-03, 4.56949174e-02, 1.95273552e-02, -7.17818066e-02, -1.12165287e-01, -8.18398744e-02, -7.85992518e-02, 2.79000774e-02, 1.14572477e-02, -4.68140505e-02, 1.23192417e-02, 6.00936674e-02, 5.24753369e-02, 2.86998227e-02, 4.79464009e-02, 5.17501347e-02, 3.29576321e-02, 6.09100647e-02, -4.90722060e-02, 3.23850592e-03, 4.76009659e-02, -2.03998629e-02, 3.60782109e-02, -4.05246392e-03, -5.71229719e-02 },
    { -8.93775076e-02, 6.16624206e-02, -1.38882073e-02, -8.54247436e-02, 6.52184412e-02, -5.61317578e-02, 6.86285496e-02, -9.87988487e-02, -5.65062985e-02, 3.43905836e-02, -4.33136802e-03, -6.04124814e-02, 4.61220443e-02, 6.56196252e-02, -3.44451517e-03, 4.37177345e-02, 7.95418583e-03, 5.51294186e-04, -6.90831020e-02, -7.39149600e-02, -4.56671454e-02, 2.73329695e-03, 5.45632727e-02, -3.80593389e-02, 5.89756109e-03, 4.00216356e-02, 5.31455204e-02, -1.22130830e-02, -6.22138306e-02, 7.58618340e-02, -5.73974960e-02, 7.47281462e-02, -2.03509396e-03, 3.70257758e-02, 6.02364056e-02, -6.32793605e-02, 1.74436923e-02, -5.04153371e-02, -5.60039328e-03, 1.03089415e-01, 2.93965004e-02, -4.12732959e-02, 7.06719607e-02, -5.13595045e-02, -3.79292816e-02, -3.81886326e-02, 5.05342633e-02, -9.08571109e-02, 2.82943193e-02, -7.57063478e-02, 5.31023294e-02, 4.52074446e-02, -5.77242188e-02, -1.01071671e-02, 9.02085681e-04, -4.87703234e-02, -4.83916961e-02, 1.97519157e-02, 4.76327129e-02, 6.65168688e-02, -7.52373114e-02, 6.17756397e-02, -3.87963578e-02, 3.11861467e-02, -6.18185885e-02, 4.99442331e-02, -4.04294804e-02, 9.00528207e-02, 7.18018934e-02, -9.14964173e-03, -7.69750848e-02, -4.22388166e-02, -8.17076564e-02, -4.27281782e-02, -2.01771986e-02, 8.66166577e-02, -5.17954119e-04, 2.69631911e-02, -6.02234639e-02, -5.89618571e-02, 6.37372956e-02, -9.76603106e-02, -3.50491479e-02, 5.83129376e-02, 3.32563370e-02, 5.64377680e-02, -1.62601881e-02, -2.01212801e-02, 1.06780283e-01, -5.65394163e-02, 6.56332374e-02, 1.55450031e-02, -2.34506577e-02, 7.68254027e-02, 1.84414419e-03, 1.33336987e-02, 3.73873897e-02, -4.09633182e-02, -3.33589241e-02, 2.31089513e-03, 2.12366674e-02, 6.23317696e-02, -2.82679442e-02, 7.26118460e-02, 4.76948097e-02, -6.93919975e-03, 5.10706753e-02, 6.23545870e-02, 5.21509461e-02, -3.03657874e-02, -2.37940811e-02, 1.37610557e-02, -8.24909564e-03, -2.42022462e-02, -7.41993710e-02, -1.71736185e-03, 6.62228018e-02, -9.79629904e-02, 4.11996804e-02, 8.72007087e-02, -4.64737788e-02, -5.52297495e-02, 9.37705673e-03, -2.73479708e-02, -8.47634897e-02, -7.24756867e-02, 1.13826498e-01, -9.68369171e-02 },
    { -4.84196655e-02, 1.68406833e-02, 6.43289834e-02, 2.21034214e-02, -5.30839562e-02, 3.14989313e-02, 2.48499941e-02, 4.06416319e-02, -4.85916771e-02, -4.01524603e-02, 7.80459344e-02, -1.20540699e-02, -6.55287653e-02, 5.20420633e-02, 4.58078779e-04, 2.48473082e-02, 2.98281647e-02, 6.94022626e-02, -6.33147955e-02, 4.44785040e-03, -4.18116115e-02, -8.81495699e-02, 3.86196189e-02, -2.81054527e-02, 4.26818579e-02, 8.47359523e-02, 4.98576947e-02, 6.50339574e-02, -7.00243488e-02, -1.81097724e-02, -4.21244316e-02, 5.13952319e-03, -6.12747110e-02, 8.24574381e-03, 4.34458554e-02, -5.03899679e-02, 6.34047240e-02, 3.29214036e-02, -1.77517068e-02, -1.51128164e-02, -5.12492172e-02, 3.28660347e-02, -1.68160908e-02, -1.99754145e-02, 6.69491738e-02, 7.39376321e-02, -2.36567687e-02, -2.77164113e-02, -6.66326061e-02, 4.57471423e-02, 4.27169725e-02, -9.93709080e-03, 4.72949306e-03, 2.39891335e-02, 2.83517176e-03, -7.49107972e-02, 3.09574865e-02, 4.62597534e-02, -2.16621626e-02, 6.21361472e-03, -2.29881257e-02, 1.59357134e-02, 7.45473728e-02, -5.97621314e-02, -8.54041278e-02, 2.05651708e-02, 5.74265383e-02, -4.87960018e-02, -7.28229508e-02, 1.89896685e-03, 5.84625453e-02, -4.65583540e-02, 1.52058518e-02, 6.04250608e-03, 5.12981005e-02, 3.84564064e-02, -6.47647306e-02, 6.23141117e-02, -5.91976941e-02, 6.23459667e-02, -1.86270452e-03, -2.89300773e-02, -3.71773317e-02, 5.87959327e-02, 6.93417117e-02, 5.67735322e-02, -7.64305377e-03, -4.37130556e-02, -2.26938706e-02, -3.53431813e-02, -3.77234183e-02, -2.87642051e-02, -1.52606834e-02, -8.01958665e-02, -8.06967542e-02, 3.50422487e-02, 8.12926143e-02, 2.00100057e-02, 7.39383474e-02, 5.35305031e-02, 3.47928554e-02, -5.30974753e-02, 1.86624359e-02, 1.72101688e-02, 7.93578625e-02, -4.57396358e-02, 1.91521794e-02, 1.19759008e-01, -3.38775590e-02, 3.33381630e-02, 1.53590068e-02, -3.34630720e-02, -3.51971723e-02, 5.58939613e-02, 5.52622974e-02, -6.58335984e-02, 1.39214713e-02, 4.15322855e-02, 1.02855347e-01, 4.75540273e-02, -2.56695785e-02, -2.10841317e-02, 1.97434053e-03, 7.18500614e-02, 2.64496151e-02, -2.38989331e-02, -4.20598984e-02, -4.14002091e-02 },
    { -7.15321079e-02, 9.11189541e-02, 8.20732042e-02, 2.95531377e-02, -6.58597648e-02, 5.98234460e-02, -1.80838369e-02, -1.59911364e-02, -1.53681030e-02, 5.86122125e-02, -4.44062985e-02, -1.18369553e-02, -2.66479179e-02, -3.14970836e-02, 8.44560042e-02, -8.84808302e-02, -7.42332190e-02, -6.29426390e-02, -6.12628721e-02, 4.62504178e-02, 2.90625747e-02, 4.69207168e-02, 3.99832837e-02, 4.49195616e-02, 6.25922382e-02, -7.91444927e-02, -6.53281435e-02, 1.06093690e-01, 3.93096581e-02, 7.77865499e-02, -7.15374062e-03, -2.14839503e-02, -2.52923239e-02, -3.16398852e-02, 7.76304025e-03, -2.84400024e-02, 5.10669947e-02, 1.05405729e-02, -6.93996698e-02, 1.54493628e-02, 8.39244574e-02, 2.60153711e-02, 7.57352561e-02, -3.74215618e-02, -1.87755767e-02, 2.80044302e-02, 2.30875984e-02, -6.27091080e-02, 9.10421684e-02, -1.55692520e-02, -6.14911169e-02, -1.14765063e-01, -3.36345285e-02, -6.67396560e-02, -4.45516482e-02, -3.74933481e-02, 3.34432982e-02, 6.60732388e-02, 6.92489743e-02, 1.16249872e-02, -2.56116912e-02, 6.04687482e-02, 1.43427495e-02, -1.56235881e-02, 6.79058805e-02, -2.76244208e-02, -7.72029310e-02, -7.78309479e-02, 8.96738246e-02, -9.02003422e-02, -5.63134961e-02, -2.58338656e-02, 3.20835225e-02, 2.91517712e-02, -4.09210883e-02, 2.72460654e-02, -8.69681165e-02, -8.51335563e-03, -2.83532720e-02, -6.51578605e-02, -4.18687947e-02, -1.24319701e-03, -1.93507802e-02, 3.82720158e-02, -9.31662843e-02, -8.00736025e-02, -7.14688422e-03, 3.77201550e-02, -3.28747220e-02, 1.28428219e-02, -2.22167019e-02, 1.86972022e-02, 5.84491938e-02, -5.86728416e-02, -5.48346259e-04, -6.94768727e-02, -7.87048340e-02, 9.03375298e-02, -3.70742381e-02, -2.18763351e-02, -1.69906653e-02, 1.45475678e-02, 1.67382695e-02, 5.28729372e-02, 5.68011850e-02, -5.94116747e-02, 8.27283040e-02, -2.85857078e-02, -5.03780693e-03, 1.86921973e-02, -7.17962906e-02, 9.21759382e-02, 5.81134632e-02, -5.28146289e-02, 6.34653047e-02, -2.95291115e-02, -9.34384689e-02, 3.67446207e-02, 5.74284308e-02, -6.82977661e-02, 3.52469906e-02, -2.91800424e-02, -5.13581038e-02, 5.40839359e-02, -4.97123934e-02, 6.48689792e-02, -3.58152576e-02, -8.48347619e-02 },
    { 5.59124947e-02, 4.73792255e-02, 4.62760516e-02, 3.44075896e-02, 4.64436598e-02, -6.72708154e-02, -8.22198519e-04, 8.23289901e-02, -5.25807263e-03, -5.39996438e-02, -1.22060571e-02, 7.79550374e-02, 7.79444873e-02, 3.82437222e-02, 4.20478918e-02, 8.04900229e-02, -1.38762435e-02, -4.53490354e-02, 1.64827344e-03, -8.64217430e-02, 2.20684689e-02, 9.90132894e-03, -5.15828207e-02, 3.24306674e-02, -7.22151548e-02, 4.64796908e-02, 1.30270589e-02, -2.30346620e-02, -7.55259097e-02, 6.17370978e-02, 1.59791037e-02, -1.30074881e-02, 8.43884125e-02, 2.63346620e-02, -3.08649931e-02, -3.81571613e-02, -6.33560047e-02, -2.14068834e-02, -3.04936357e-02, 9.19074810e-04, -1.22263702e-02, 4.88994978e-02, -4.90150489e-02, 4.11111563e-02, 2.34974595e-03, -7.02924207e-02, 2.73508020e-02, -1.00342929e-02, 6.84689656e-02, -8.48873751e-04, 8.54681954e-02, -2.77526472e-02, -7.59435520e-02, -6.68212622e-02, -2.50550210e-02, -1.04408143e-02, 4.73040156e-02, -6.96141273e-02, 4.80971150e-02, -7.02174082e-02, -1.28299408e-02, 5.29239252e-02, 7.02489763e-02, -4.21256199e-02, 5.68881584e-03, -1.03165336e-01, 6.49578795e-02, -2.82786749e-02, 5.92275802e-03, -2.89640855e-03, -5.06911017e-02, 1.57454479e-02, -1.61626786e-02, 9.70072076e-02, 5.51599599e-02, -8.32658932e-02, 5.31252176e-02, -4.13450822e-02, -3.92129980e-02, 5.19494265e-02, -2.22532153e-02, 3.36924382e-02, 4.77869846e-02, -3.38733569e-03, 2.91353036e-02, 6.15373664e-02, 6.85174167e-02, -5.46997413e-02, -9.07448977e-02, -6.00726567e-02, -9.35086142e-03, 3.64109576e-02, 1.07331173e-02, -5.86470477e-02, -3.41319628e-02, -4.48193178e-02, -5.59698157e-02, 1.71004143e-03, -1.31329428e-03, -5.02570868e-02, -6.43007234e-02, -5.73496222e-02, 7.22560212e-02, -4.58360352e-02, 3.63374949e-02, -6.26151860e-02, 8.86323452e-02, -1.18268756e-02, 5.13975695e-02, 4.79802229e-02, 1.76862103e-03, -5.46652339e-02, 7.05967471e-02, 3.15710495e-04, 6.52378798e-02, 8.31288635e-04, -5.87658659e-02, -6.94233924e-02, 7.25364834e-02, 6.72210976e-02, -7.98887834e-02, -4.96584363e-02, -2.64393073e-02, -1.55286836e-02, -5.16894422e-02, 4.47319075e-03, -2.05067061e-02, 9.64365993e-03 },
    { 1.60852745e-02, 2.77920403e-02, 6.79745227e-02, 1.08900042e-02, 4.59593050e-02, -1.32540427e-02, -1.25909355e-02, 7.24052042e-02, -3.60697061e-02, -5.21065947e-03, 2.32638065e-02, -5.59226386e-02, 7.73324296e-02, -3.23758982e-02, 3.43203805e-02, -7.47624636e-02, 4.91973422e-02, 4.36654650e-02, -9.14661288e-02, -1.04640491e-01, 6.88245445e-02, 2.06799582e-02, 4.33347896e-02, -4.64495830e-02, 1.13227494e-01, -4.96919081e-02, -5.33159822e-02, -2.90779993e-02, -8.51957873e-02, -3.65461931e-02, -5.09235188e-02, -1.36700571e-02, -5.12397885e-02, 8.18416849e-03, 3.30131762e-02, 6.68360740e-02, -9.69387889e-02, 2.88943946e-02, -1.76840276e-02, -6.68504369e-03, -5.02309054e-02, -1.17131639e-02, 4.29742374e-02, -2.27764640e-02, -2.97944043e-02, -6.55903146e-02, 1.93336252e-02, -1.45417545e-02, -7.37559348e-02, -1.10810138e-02, 2.60920525e-02, -1.05154119e-01, -4.56302501e-02, -4.35685031e-02, -6.57348558e-02, 3.33947502e-02, -6.74557984e-02, 6.49806708e-02, 2.08075587e-02, -1.91027373e-02, -6.95372149e-02, 3.22477818e-02, -4.15084064e-02, 3.42434645e-02, 2.81481016e-02, 4.03203554e-02, -3.91340032e-02, -9.59365964e-02, 4.73928638e-02, -6.44674301e-02, 9.98944044e-02, -4.58034091e-02, -3.26349586e-02, -5.77098876e-03, 5.99410497e-02, 1.94261447e-02, 7.21215084e-02, 4.97580543e-02, -1.50267771e-02, 8.99271518e-02, -2.54684594e-02, -8.21362957e-02, -3.53268199e-02, 3.85016389e-02, 2.81646401e-02, 1.07680419e-02, -5.93361333e-02, -6.99639961e-04, -2.81580463e-02, -1.58469714e-02, 1.49364909e-02, -5.53618297e-02, 5.88545464e-02, -1.96863362e-03, 8.60121399e-02, 1.16302751e-01, -4.05702032e-02, -8.91304985e-02, -4.72530350e-02, -9.38608572e-02, 1.19048096e-02, 9.03478712e-02, 5.13128936e-02, -1.03136770e-01, -9.70817432e-02, -2.94820983e-02, 5.51687181e-02, -2.07895245e-02, -3.85447219e-02, 6.84347749e-02, -1.35759398e-01, 5.02980165e-02, 5.96213154e-02, 4.29611132e-02, 3.26298550e-02, 8.29635337e-02, -3.55060883e-02, 1.91041676e-03, -1.90780638e-03, 7.89884105e-02, 6.69758767e-02, -1.82978008e-02, 9.19669773e-03, -2.98404545e-02, 7.01055601e-02, 3.22334282e-02, -1.07450068e-01, 2.20869971e-03 },
    { -5.97123094e-02, 5.85929155e-02, 1.00028612e-01, -9.31543205e-03, 7.96198323e-02, 6.48842230e-02, 6.72567561e-02, -7.00690523e-02, 4.67819385e-02, 4.24071886e-02, -1.54296793e-02, -4.70854482e-03, -4.84857000e-02, 7.62690902e-02, 4.48156260e-02, -5.80463707e-02, -2.54827645e-02, -5.76712526e-02, -1.01585593e-02, -5.71244508e-02, 4.88491058e-02, 5.23040444e-02, 1.65903550e-02, 5.37590757e-02, 3.67620820e-03, 5.36096282e-02, 9.61878300e-02, -3.06742787e-02, -6.39190944e-03, -2.65054754e-03, 2.24574227e-02, 6.37530163e-02, 8.47241469e-03, -5.13494760e-02, -9.79110599e-02, 3.84899229e-02, 7.68424571e-02, 4.31086980e-02, 1.11491904e-02, 3.65514606e-02, -7.90474042e-02, -7.70677030e-02, 3.92322317e-02, -1.66663211e-02, 8.64428654e-02, 3.35980207e-02, -6.25604615e-02, -7.75067881e-02, 3.50318551e-02, 7.89001063e-02, 5.71667105e-02, 5.57980947e-02, 3.69105898e-02, -6.27739877e-02, 5.21261059e-02, -2.25157104e-02, -3.39334458e-02, -6.91577420e-02, -7.29931295e-02, 4.61586304e-02, -7.13685453e-02, -7.07714260e-02, 6.58040643e-02, 6.70112073e-02, 9.58119333e-03, 6.10575341e-02, 8.61223496e-04, 4.39594872e-02, 5.66824945e-03, 8.45390856e-02, 7.38682970e-02, 1.32753151e-02, 3.12870182e-02, 7.86052123e-02, -6.91584498e-02, 6.84694424e-02, -4.37738001e-02, -9.16221440e-02, -3.10987756e-02, -1.12069555e-01, 9.26302001e-02, 4.15825844e-02, 1.85228307e-02, -6.47751987e-02, 5.37811071e-02, 5.10425083e-02, -3.43276816e-03, -2.31165662e-02, -1.67599805e-02, -5.41405044e-02, 5.70321232e-02, -5.03069647e-02, 3.26850787e-02, 5.63822947e-02, -6.37190342e-02, -3.83819006e-02, 3.35074812e-02, 2.18997095e-02, 7.79574290e-02, -2.46295109e-02, -8.68485123e-02, 1.23628927e-02, -4.90873307e-02, 7.31285661e-02, 6.26344159e-02, -1.25434967e-02, -5.08956686e-02, 2.58961245e-02, -6.62121251e-02, -6.54865131e-02, -8.64472240e-03, -5.44098727e-02, -2.52642110e-02, 2.57687476e-02, -1.01510644e-01, 7.01669082e-02, -5.14201708e-02, -8.27009529e-02, 7.51852170e-02, -5.20494953e-02, -6.56559542e-02, -7.42123872e-02, -9.35958102e-02, 2.54092924e-02, -6.82511553e-02, 4.88362722e-02, -2.86263749e-02, 7.63681009e-02 },
    { -2.68214941e-02, -7.21919397e-03, 4.26251814e-02, 5.58732189e-02, 4.49234918e-02, -1.95567999e-02, 3.33114266e-02, 1.93529837e-02, -1.01321176e-01, -4.03395295e-02, -7.84875900e-02, 8.07369500e-02, -1.95520036e-02, 5.20366384e-03, 1.79078020e-02, -2.49717329e-02, 5.60501777e-02, 3.96147743e-02, -2.34123934e-02, -3.35264578e-02, -4.26205806e-02, 6.65771365e-02, -4.91450354e-02, -3.87327396e-03, 1.45743778e-02, 2.98741851e-02, -3.18023749e-02, -7.16995373e-02, 4.49339189e-02, 1.36263249e-02, -5.74301146e-02, 4.33172360e-02, 2.83663645e-02, -6.03436083e-02, -6.66326727e-04, -1.20442268e-02, -1.02198265e-01, -1.19703367e-01, -4.66555282e-02, -2.89043486e-02, -7.72774294e-02, -8.15221220e-02, 1.02617010e-01, 3.33978385e-02, -2.51433086e-02, 1.98745802e-02, -5.00954464e-02, -3.36001702e-02, 6.41957447e-02, 8.59535262e-02, 5.39384782e-02, -2.43005995e-02, -6.33127242e-02, -1.31199351e-02, 3.96825820e-02, -1.10353462e-01, -7.27279186e-02, 3.04609514e-03, -7.61882961e-02, 5.67559265e-02, 4.86088917e-02, -4.69932556e-02, 6.15023561e-02, 6.72947541e-02, 3.96769457e-02, -6.51418269e-02, -9.60557982e-02, 3.72859603e-03, -1.88704897e-02, 6.33580238e-02, 1.28177563e-02, -4.61343676e-02, 2.63710283e-02, -1.32177072e-02, -3.14435065e-02, 7.15056732e-02, 7.20623657e-02, 7.78690204e-02, 6.54227734e-02, -4.50526327e-02, 5.61769791e-02, 3.28127481e-02, -6.61688717e-03, -2.37376075e-02, 2.30889022e-02, -2.06962880e-02, 3.08994241e-02, 3.87148671e-02, -1.58516467e-02, -1.01930939e-01, -3.51723917e-02, -8.53587314e-02, 5.90423606e-02, 5.85691109e-02, 1.40460012e-02, -7.26163462e-02, -5.91956824e-02, 6.59957156e-02, 7.05545768e-02, 1.00860402e-01, -4.14156122e-03, 3.84624749e-02, -1.20533137e-02, -1.79978050e-02, -8.58459994e-03, -2.47116089e-02, 5.02350666e-02, 1.57371294e-02, 4.14933488e-02, 6.44738926e-03, -3.31836604e-02, 2.24400740e-02, -4.43246886e-02, 8.06644931e-02, -5.62812155e-03, 8.92604068e-02, -7.73396268e-02, 2.17374731e-02, 1.85438301e-02, 6.96833385e-03, -4.14331928e-02, 7.82795716e-03, 6.75006509e-02, -3.61427814e-02, -3.59849655e-03, -6.19560145e-02, 1.01985492e-01, -4.07263376e-02 },
